<?xml version="1.0"?>
<opencv_storage>
<opencv_ml_svm>
  <format>3</format>
  <svmType>C_SVC</svmType>
  <kernel>
    <type>LINEAR</type></kernel>
  <C>1.</C>
  <term_criteria><epsilon>1.0000000000000000e-02</epsilon>
    <iterations>1000</iterations></term_criteria>
  <var_count>400</var_count>
  <class_count>7</class_count>
  <class_labels type_id="opencv-matrix">
    <rows>7</rows>
    <cols>1</cols>
    <dt>i</dt>
    <data>
      0 1 2 3 4 5 6</data></class_labels>
  <sv_total>21</sv_total>
  <support_vectors>
    <_>
      -8.67486888e-05 1.78685324e-04 6.26151523e-05 2.66021292e-04
      1.55237212e-04 1.71806794e-04 1.68447776e-04 -4.79615235e-04
      -7.27983788e-05 1.86569800e-04 -2.35146217e-05 9.33405827e-05
      6.14134187e-04 2.16503249e-04 1.89011756e-04 9.80801851e-05
      1.64880097e-04 7.39485258e-05 2.34960917e-05 1.86401448e-04
      3.60335456e-04 2.58366315e-04 -1.17468317e-05 8.24063973e-05
      1.71806794e-04 1.06538049e-04 1.38264382e-04 4.44173900e-04
      -4.21596400e-04 -5.92240831e-04 -6.69626577e-04 2.16384142e-05
      5.71118610e-04 2.12753526e-04 1.14649767e-04 1.14649767e-04
      1.64880097e-04 2.08864280e-04 1.96008714e-05 5.28853088e-05
      2.66320072e-04 -3.19229235e-04 -1.46662584e-04 8.24063973e-05
      1.06538049e-04 2.89749732e-04 -8.62482775e-05 2.15995460e-04
      -4.44126170e-04 -6.04357861e-04 -5.51280449e-04 2.16384142e-05
      5.59001579e-04 1.59396906e-04 1.14649767e-04 1.14649767e-04
      3.16365447e-04 2.25433861e-04 2.37074099e-04 3.25154979e-05
      1.33691181e-04 1.16146682e-03 -1.17468317e-05 -6.42561863e-05
      1.97469621e-04 4.86674689e-05 -8.62482775e-05 -6.20599254e-04
      -4.56243171e-04 -6.86196203e-04 -5.51280449e-04 1.06419800e-04
      8.69241136e-04 2.44972151e-04 1.14649767e-04 1.14649767e-04
      2.25433861e-04 2.25433861e-04 2.37074099e-04 1.27294887e-04
      1.17121599e-04 -1.73262530e-03 -1.17468317e-05 -6.42561863e-05
      3.32385360e-04 4.86674689e-05 -1.41380864e-04 -3.40853760e-04
      -6.61589962e-04 -4.29208478e-04 -5.51280449e-04 1.06419800e-04
      2.65184412e-04 2.44972151e-04 1.14649767e-04 1.14649767e-04
      2.25433861e-04 1.46954553e-04 2.37074099e-04 9.24032793e-05
      1.41253258e-04 3.64290492e-04 7.91847415e-05 -4.01245306e-05
      3.32385360e-04 3.19933111e-04 -1.65161618e-05 2.33556028e-04
      -1.04524952e-04 -3.86554835e-04 -6.51390001e-04 -1.28605549e-04
      2.91043340e-04 1.54040579e-04 1.97056157e-04 1.14649767e-04
      9.05181150e-05 1.20388031e-05 1.73962690e-04 -4.25348728e-04
      4.94315682e-05 5.80249034e-05 7.91847415e-05 9.47912195e-05
      4.10864683e-04 3.19933111e-04 2.64994251e-05 -1.05415739e-03
      4.30091342e-04 -1.29366541e-04 -5.87731411e-05 -4.21866607e-05
      1.49977423e-04 7.63963544e-06 1.97056157e-04 9.05181150e-05
      9.05181150e-05 1.20388031e-05 1.73962690e-04 -7.45723664e-04
      1.13821130e-04 -1.04945626e-04 2.53162551e-04 9.47912195e-05
      4.10864683e-04 3.19933111e-04 1.85017358e-04 -4.85690020e-04
      -6.64718624e-04 -1.17249539e-04 -6.53651892e-04 -4.21866607e-05
      8.02645169e-04 1.30438391e-04 1.54040579e-04 9.05181150e-05
      9.05181150e-05 1.20388031e-05 1.73962690e-04 9.52705916e-04
      4.16163995e-04 -5.49482393e-05 2.82497989e-04 1.03316401e-04
      4.10864683e-04 3.19933111e-04 1.85017358e-04 1.13765731e-04
      -9.82353449e-05 -5.94656522e-05 -6.53651892e-04 7.94770131e-06
      -9.34943499e-04 1.30438391e-04 1.54040579e-04 1.72924512e-04
      1.72924512e-04 9.44451967e-05 1.68758910e-04 5.66814735e-04
      4.16163995e-04 5.24729403e-05 2.20180969e-04 1.03316401e-04
      2.37526721e-04 2.37526721e-04 1.93542539e-04 5.56218802e-05
      2.81469198e-04 3.80544487e-04 -5.19704714e-04 7.94770131e-06
      -9.34943499e-04 8.03040311e-05 1.54040579e-04 1.72924512e-04
      1.72924512e-04 9.44451967e-05 1.55592585e-04 1.53213550e-04
      2.74584396e-04 7.93357103e-05 2.20180969e-04 2.89605850e-05
      2.37526721e-04 2.37526721e-04 1.93542539e-04 1.48354738e-04
      2.57337553e-04 3.80544487e-04 -5.07587683e-04 7.94770131e-06
      -4.15476912e-04 8.03040311e-05 1.54040579e-04 2.63856084e-04
      9.44451967e-05 9.44451967e-05 7.26718354e-05 7.55613946e-05
      6.85363659e-04 1.24041253e-04 2.20180969e-04 -9.39163583e-05
      2.37526721e-04 1.02610968e-04 1.78774237e-04 -1.53163739e-04
      -8.94500772e-05 -1.93302683e-03 -5.07587683e-04 1.02629012e-04
      -3.65342537e-04 8.03040311e-05 1.03906219e-04 2.87987728e-04
      1.18576856e-04 1.18576856e-04 9.68034947e-05 -1.12402653e-04
      8.54774553e-04 1.29306503e-03 1.07439897e-04 -2.74758513e-05
      2.37526721e-04 1.02610968e-04 7.93458239e-05 -1.82479926e-05
      -8.94500772e-05 3.80544487e-04 -3.61186772e-04 1.02629012e-04
      -3.45827139e-04 8.03040311e-05 9.17892248e-05 2.09508435e-04
      1.18576856e-04 1.18576856e-04 8.47646952e-05 4.00678582e-05
      7.37428956e-04 -1.48406171e-03 -3.72376613e-04 -2.74758513e-05
      2.37526721e-04 1.97973452e-04 -1.40207645e-04 -7.90241029e-05
      -1.67929378e-04 3.02065164e-04 -4.39666066e-04 5.43330862e-05
      -3.77236021e-04 -2.23069383e-05 -1.08217446e-05 2.09508435e-04
      1.18576856e-04 1.18576856e-04 8.47646952e-05 3.52844771e-04
      -2.03637476e-03 -2.54458678e-03 -4.63308184e-04 1.19186727e-04
      1.81630676e-04 2.67815136e-04 -9.17107827e-05 -7.90241029e-05
      -6.78197903e-05 2.55512190e-04 -3.39556485e-04 1.97458270e-04
      -2.77126412e-04 1.27937019e-04 -1.57222690e-04 1.66492842e-04
      1.18576856e-04 1.18576856e-04 8.47646952e-05 2.92048848e-04
      -1.74420956e-03 1.70409970e-04 -1.18407428e-04 1.02610968e-04
      8.15210733e-05 2.67815136e-04 6.17416299e-05 -2.13939842e-04
      3.38229211e-06 1.20596444e-04 -4.70722502e-04 7.46595178e-05
      -3.42455402e-04 -6.97872974e-06 7.78026588e-05 2.51274236e-04
      1.18576856e-04 1.18576856e-04 8.47646952e-05 -6.99178549e-04
      6.38853293e-04 3.36129131e-04 -4.40516123e-05 2.02720563e-04
      1.45172613e-04 4.03159065e-05 3.88141461e-06 -2.13939842e-04
      1.81505948e-05 2.96648723e-05 -4.70722502e-04 7.46595178e-05
      -4.12042165e-04 -6.97872974e-06 7.78026588e-05 2.27142576e-04
      1.18576856e-04 1.18576856e-04 1.06538049e-04 -9.93709473e-05
      8.48556636e-04 3.97701544e-04 5.60579829e-05 2.02720563e-04
      3.16546415e-04 1.26545841e-04 -3.85532985e-05 5.99122250e-05
      4.81653915e-05 2.96648723e-05 -4.70722502e-04 7.46595178e-05
      -1.87255609e-05 -6.97872974e-06 1.27937019e-04 3.27252172e-04
      9.44451967e-05 1.18576856e-04 1.06538049e-04 -2.97841943e-05
      -2.03950563e-04 -1.17643685e-05 5.60579829e-05 2.51217425e-04
      2.38067107e-04 1.55424597e-04 1.01109559e-04 1.70696308e-04
      4.81653915e-05 1.64580619e-04 -4.40539094e-04 1.73404798e-04
      3.64070183e-05 3.60368576e-05 5.13826399e-06 1.35242415e-04
      1.79226583e-04 2.23907773e-04 2.11868974e-04 7.55467263e-05
      8.81043379e-05 -3.20128092e-05 -4.40516123e-05 2.51217425e-04
      3.28998693e-04 1.01109559e-04 1.01109559e-04 1.70696308e-04
      4.81653915e-05 4.59956413e-04 -3.05623369e-04 1.85443612e-04
      3.64070183e-05 4.81538518e-05 4.81538518e-05 2.85486371e-04
      9.44451967e-05 9.44451967e-05 1.41501383e-04 -1.07409207e-04</_>
    <_>
      8.98252940e-04 1.04928826e-04 4.92388826e-05 6.23160668e-05
      -2.20926231e-04 -2.19354944e-04 -1.11488043e-04 -7.20898679e-04
      -6.18021993e-04 3.11673648e-04 4.41472046e-04 8.24296265e-04
      -7.08781125e-04 6.43812178e-04 -4.97063374e-05 2.37163433e-04
      7.08431471e-04 3.16245190e-04 2.41214235e-04 5.04418276e-04
      6.83175094e-05 9.73913484e-05 2.00650557e-05 3.47135319e-05
      -2.48528755e-04 -2.46957468e-04 -1.40661868e-04 2.22936927e-04
      -2.03718300e-05 -2.64882110e-05 1.92787978e-04 -2.41161571e-04
      -1.66126480e-03 6.22135063e-04 -5.43088303e-04 -5.63683170e-05
      4.95740620e-04 3.16245190e-04 -9.00081883e-04 8.08066980e-05
      -9.00877967e-06 2.00650557e-05 2.00650557e-05 1.46484772e-05
      1.46484772e-05 1.46484772e-05 1.22515368e-04 4.84254502e-04
      6.01429783e-04 -5.98657862e-05 -2.03448581e-04 -2.78570224e-04
      -1.57932111e-03 4.16581664e-04 -5.83978370e-04 -1.55782807e-04
      1.69112333e-04 -2.11979888e-04 -8.72479344e-04 -8.29063531e-04
      -3.66113163e-05 5.20022353e-04 2.00650557e-05 1.46484772e-05
      1.62197703e-05 3.47135319e-05 1.83862110e-04 5.14605781e-04
      6.92056899e-04 6.83202117e-04 -2.03448581e-04 -7.38365168e-04
      -7.82253162e-04 9.45559994e-04 -7.53191998e-04 -1.01830636e-03
      2.17947119e-04 -2.11979888e-04 6.51040522e-04 -3.56915873e-04
      -3.16671707e-04 2.00650557e-05 2.00650557e-05 1.46484772e-05
      1.62197703e-05 3.47135319e-05 1.83862110e-04 5.14605781e-04
      5.14605781e-04 1.51651648e-05 4.64588345e-04 -2.57108972e-04
      -1.29137060e-03 4.81155614e-04 -9.94231086e-04 -8.58037442e-04
      2.17947119e-04 -1.39965250e-05 -8.26732023e-04 3.81770515e-04
      -3.16671707e-04 5.20022353e-04 2.00650557e-05 1.46484772e-05
      1.62197703e-05 3.47135319e-05 5.74080477e-05 5.14605781e-04
      5.14605781e-04 -1.47385072e-05 4.64588345e-04 -2.77174026e-04
      -5.69138967e-04 5.32076985e-04 -2.10598184e-04 -1.55632035e-04
      4.09636210e-04 -3.40615807e-05 -7.92051433e-05 4.27452760e-04
      2.64978822e-04 5.20022353e-04 2.00650557e-05 3.47135319e-05
      1.62197703e-05 3.47135319e-05 1.46484772e-05 1.46484772e-05
      7.00437988e-04 -4.57476708e-04 -3.58827470e-04 -5.70793462e-04
      -1.42746256e-03 4.81155614e-04 6.94621922e-05 -1.55632035e-04
      4.40492498e-04 2.08548838e-04 -1.25615072e-04 4.27452760e-04
      2.51672405e-04 5.20022353e-04 2.00650557e-05 2.03927164e-04
      2.05498451e-04 2.03927164e-04 1.83862110e-04 1.83862110e-04
      2.58893066e-04 -1.22438057e-03 -5.56343643e-04 -1.07351784e-03
      1.07740785e-03 1.64809142e-04 -2.10598184e-04 9.31542309e-06
      2.42509122e-04 2.52526224e-04 -1.25615072e-04 9.35638789e-04
      2.36009510e-04 4.99957299e-04 2.00650557e-05 1.89278682e-04
      2.03927164e-04 2.03927164e-04 1.83862110e-04 1.83862110e-04
      -2.24768519e-04 -8.05350919e-06 -3.06320190e-03 -6.68675755e-04
      5.97515609e-04 -3.08146628e-05 -9.77845339e-05 -1.27893360e-03
      5.73504076e-04 2.67174706e-04 -1.25615072e-04 -4.03550977e-04
      3.89716733e-04 4.99957299e-04 2.00650557e-05 1.89278682e-04
      1.89278682e-04 1.89278682e-04 1.69213628e-04 2.58893066e-04
      -4.87945770e-04 1.20115456e-05 -3.09806674e-05 6.05650421e-04
      2.30247766e-04 -5.63400463e-05 -8.66768940e-04 -7.04411068e-04
      3.30893672e-04 3.80944024e-04 4.33617941e-04 -1.23490609e-04
      3.87421373e-04 5.74988255e-04 2.00650557e-05 1.69213628e-04
      1.90849969e-04 1.89278682e-04 1.69213628e-04 2.58893066e-04
      -4.87945770e-04 -1.05211861e-04 -4.18354117e-04 2.53090111e-04
      2.30247766e-04 1.94786873e-04 -2.33611005e-04 1.18202814e-04
      3.30893672e-04 2.67174706e-04 -3.85297208e-05 2.10096303e-04
      4.07486426e-04 5.95053309e-04 1.72044500e-04 1.69213628e-04
      1.90849969e-04 1.69213628e-04 4.10427863e-04 2.36930049e-04
      -1.01442536e-04 -4.57041722e-04 -5.33132174e-04 -4.63547942e-04
      2.30247766e-04 4.16482537e-04 -2.33611005e-04 3.74871073e-04
      3.74871073e-04 2.67174706e-04 5.44766999e-06 -2.99220992e-04
      4.07486426e-04 5.95053309e-04 2.64309638e-04 1.69213628e-04
      1.89278682e-04 4.10427863e-04 2.22281567e-04 1.39771699e-04
      -2.05914796e-04 -3.20441322e-04 -5.33132174e-04 -5.24894684e-04
      -6.59140787e-05 1.19455282e-04 3.74871073e-04 5.72854420e-04
      3.74871073e-04 2.67174706e-04 -4.64105891e-04 -3.41472012e-04
      2.17595953e-04 5.95053309e-04 2.00650557e-05 1.69213628e-04
      1.69213628e-04 3.93837290e-05 1.05058170e-04 1.26694518e-04
      -7.16743001e-04 -5.33132174e-04 -5.33132174e-04 -5.20720751e-05
      2.27047829e-04 1.09744484e-04 3.30893672e-04 5.28877019e-04
      5.28877019e-04 2.67174706e-04 2.95573354e-05 -6.03694178e-04
      2.00361756e-04 2.93079356e-04 2.19619702e-04 0. 1.02510079e-04
      4.03122627e-04 4.63166944e-04 9.82943675e-05 -5.16368775e-04
      -6.05187437e-04 -2.29523197e-04 2.37612738e-04 3.96332296e-04
      8.96794299e-05 8.96794299e-05 2.87662784e-04 5.28877019e-04
      1.92143751e-04 -4.54736146e-05 6.28464157e-04 1.80296702e-04
      7.50309482e-05 1.99554648e-04 1.57129227e-06 4.27346386e-05
      4.78153583e-04 6.64997438e-04 -2.54370272e-04 -5.37574524e-04
      -2.04444761e-04 7.19869831e-06 7.67087855e-04 3.32289841e-04
      2.60464352e-04 2.33367668e-04 3.07727838e-04 2.87662784e-04
      -9.30478782e-05 -6.92375936e-04 -3.85220192e-04 -8.05506352e-06
      -1.82632939e-05 8.23312512e-05 1.57129227e-06 1.45526647e-04
      2.23000734e-05 -9.13444237e-05 -3.17135884e-04 -5.37574524e-04
      -8.37401785e-06 6.07271388e-04 7.67087855e-04 1.88325401e-04
      2.60464352e-04 2.58893066e-04 3.52354895e-04 3.32289841e-04
      2.57258886e-04 -4.29863547e-04 -3.12121701e-04 4.04151215e-04
      1.46366629e-05 1.62079559e-05 3.12844320e-04 1.27983774e-04
      4.69626917e-04 1.17664305e-04 -3.92538263e-04 -4.03466081e-04
      6.92762027e-04 4.90047969e-04 3.02661705e-04 -1.00709149e-04
      -2.55220002e-05 5.10369464e-05 3.52354895e-04 3.32289841e-04
      3.01236287e-04 1.09428693e-05 5.72682009e-04 -9.78392782e-04
      -4.34772301e-05 -4.19059361e-05 2.04537471e-04 4.66673082e-04
      7.07887346e-04 -2.23775336e-04 -2.64953502e-04 2.62309823e-05
      9.97105526e-05 9.44533604e-05 1.28216241e-04 -5.49192191e-04
      -1.95257147e-04 8.32319420e-05 1.34235655e-04 2.48699274e-04
      1.46484772e-05 8.55401595e-05 1.07640866e-03 6.40313083e-04
      1.82457472e-04 -1.20883931e-04 1.25559469e-04 5.35774801e-04
      5.55839855e-04 1.43943165e-04 -6.87476859e-05 -7.03189799e-05
      1.27870138e-04 -2.20053495e-04 2.82590103e-04 -2.16900036e-04
      -8.55684339e-05 -1.68549707e-06 -1.68549707e-06 8.96794299e-05
      -3.62728642e-05 -8.36852778e-05 3.91578855e-04</_>
    <_>
      3.93202572e-05 -6.92788381e-05 -6.70944282e-05 1.66369704e-04
      2.22055925e-04 -1.24141397e-05 -6.17057667e-05 -6.61352969e-05
      -8.80217631e-05 -9.66442894e-05 -2.54905230e-04 -2.01809555e-04
      1.82808435e-04 -3.85624662e-05 -1.31492678e-04 2.30823294e-04
      2.84196110e-04 5.00877504e-05 -1.27127001e-04 -7.40051037e-05
      1.62491619e-04 -1.49380692e-04 -4.98953559e-05 1.43226061e-04
      -1.43758560e-04 -1.15845898e-04 -1.16164447e-05 -3.47241003e-05
      -5.63941176e-05 -7.06808569e-05 -1.22764483e-04 -3.38740610e-05
      1.95292683e-04 -1.19473196e-04 -1.13300790e-04 5.40146393e-05
      2.21341863e-04 1.72134096e-04 2.08309488e-04 8.88119466e-05
      3.29395698e-04 -3.73622493e-06 7.96679160e-06 2.14114247e-04
      -1.30051922e-04 -3.83084225e-05 -5.82041648e-05 2.81275770e-05
      6.58849312e-05 -3.07074893e-04 -4.39728501e-06 -1.69055929e-04
      2.64068221e-04 -2.32813662e-04 -1.20275377e-04 2.66172050e-04
      1.33659851e-04 3.17778555e-04 2.80580454e-04 2.20565154e-04
      2.67079566e-04 1.21810452e-04 -1.58596977e-05 2.08854053e-05
      1.62832948e-05 -3.75555501e-05 -5.96255340e-05 5.11981198e-05
      4.51973028e-05 1.02121645e-04 -2.23449635e-04 -1.04776031e-04
      3.71315313e-04 -1.37459618e-04 -1.28789936e-04 2.28189892e-04
      1.73529130e-04 5.19326604e-05 -1.22170371e-04 1.34472706e-04
      2.01691888e-04 -5.47323943e-05 3.10583273e-05 5.55682673e-05
      1.03138154e-04 6.60848818e-05 2.48599797e-04 3.05260532e-04
      3.50127637e-04 -1.41535755e-04 -2.02561801e-04 2.17300199e-04
      6.32449737e-05 -9.22020117e-05 -3.77207361e-05 1.04641651e-04
      5.34488099e-05 -5.35858017e-05 -7.06276332e-05 5.52852398e-05
      1.24684477e-04 -6.59463331e-05 -2.15259148e-04 1.93702392e-04
      5.20772650e-04 2.80151638e-04 -4.24993850e-05 3.07026989e-04
      1.93264481e-04 -6.53517636e-05 -2.60583154e-04 1.58585928e-04
      5.25957876e-05 -9.22020117e-05 2.02048279e-04 6.91151945e-05
      1.36378358e-05 -1.22868703e-04 3.96193791e-05 -3.26622598e-04
      1.26836123e-04 -4.38348106e-05 -1.50410138e-04 1.27021878e-04
      3.97382741e-04 -4.11134279e-05 9.55336363e-05 1.58040231e-04
      2.98015395e-04 -1.24250582e-04 -1.93936328e-04 7.28637679e-05
      3.48534704e-05 6.37117955e-06 2.28821300e-04 3.92301241e-04
      -2.64355858e-05 -8.07114629e-05 -5.79756015e-05 -3.26622598e-04
      1.54458990e-04 4.99705857e-05 -3.37731253e-05 7.63099160e-05
      4.29029984e-04 1.00741185e-04 8.84601759e-05 1.14098264e-04
      1.50795109e-04 -2.25388038e-04 -4.74049099e-04 -1.37558425e-04
      8.61161461e-05 3.11960284e-05 2.65720184e-04 2.08730271e-04
      -7.50211184e-05 -1.04275896e-04 -8.06632379e-05 -7.35383655e-05
      -1.38566233e-04 -1.47760757e-05 -1.64277008e-04 -8.60686851e-05
      3.44820437e-04 2.80249980e-04 4.57226961e-05 -9.40145110e-05
      -2.51432593e-05 -4.71538195e-04 -6.40609767e-04 -3.63325555e-04
      -5.20846923e-04 1.19457822e-04 1.67426100e-04 5.09864651e-04
      8.68374354e-06 -2.05710367e-05 -1.02773578e-04 1.11283762e-05
      -5.69564800e-05 1.66227728e-05 -5.05630960e-05 8.36748222e-05
      2.03568823e-04 1.19599892e-04 1.21445992e-04 1.88133374e-04
      -1.82471740e-05 -6.88669796e-04 -9.49556066e-04 -4.39700176e-04
      -2.16613611e-04 2.63830385e-04 1.95700690e-04 2.91637523e-04
      -3.20194122e-05 5.81557360e-05 -9.50167741e-05 1.64522047e-04
      7.39189200e-05 1.33881564e-04 -1.41867175e-04 1.89682687e-05
      2.00283641e-04 2.54649873e-04 6.42453961e-05 -7.82400184e-06
      3.54729855e-06 -7.94496562e-04 -7.07113824e-04 -4.73812484e-04
      -2.55439867e-04 -3.19717328e-05 2.18462083e-04 3.36435507e-04
      -2.08049183e-04 -2.05710367e-05 -1.29833599e-04 4.16155781e-05
      1.44060949e-04 1.61886332e-04 -1.99961767e-04 8.42120644e-05
      1.27960491e-04 7.93870931e-05 1.15749244e-04 2.13145409e-04
      1.66958169e-04 -3.09593801e-04 -8.26678734e-05 -3.46900837e-04
      -2.16397544e-04 -1.29037551e-04 -2.83855916e-05 7.90327103e-05
      -3.56520177e-04 2.47824246e-05 -1.57811897e-04 9.24176566e-05
      8.35601822e-05 1.73156935e-04 -4.76483547e-05 -6.19549974e-05
      1.09328910e-04 1.19858887e-04 9.22586114e-05 -7.81504696e-06
      1.00232377e-04 2.82446344e-05 -1.12204994e-04 -7.29597159e-05
      -9.82025813e-05 -2.13672320e-04 -6.20396677e-05 1.50180349e-05
      -1.29734952e-04 3.83101724e-05 -6.07664842e-05 8.71279644e-06
      8.14676678e-05 1.63561068e-04 -1.93072206e-04 1.13436545e-05
      8.17711480e-05 7.94422012e-05 -1.39037205e-04 1.61211181e-04
      1.42710254e-04 3.25299188e-04 4.45523474e-05 2.08329919e-04
      -3.32860189e-04 -1.23445512e-04 -7.67002275e-05 -1.64211742e-05
      -3.03873239e-04 4.31910012e-05 -6.07664842e-05 6.94634718e-06
      1.27684280e-05 6.49262947e-05 -7.78684182e-07 -1.64752128e-04
      7.96294989e-05 6.73802933e-05 -2.61031128e-05 4.94072556e-05
      2.99635314e-04 4.30268905e-04 2.99936975e-04 2.56870408e-05
      -9.49214082e-05 -1.22914862e-04 -9.24690030e-05 4.43405770e-05
      -3.03873239e-04 1.61717122e-04 -1.92361986e-04 -8.51752557e-05
      -2.73049936e-05 1.63407658e-05 -8.66833725e-05 -6.24323875e-05
      1.86992795e-04 3.21988860e-04 2.36283768e-06 3.43778338e-05
      3.12681543e-04 4.21373989e-04 3.70002708e-05 -8.23291703e-05
      -1.24928483e-04 -1.50641921e-04 -7.87432946e-05 8.77673883e-05
      -2.69190379e-04 1.61717122e-04 -3.64621774e-05 1.83619650e-05
      -1.63277509e-04 -8.08163240e-05 -7.03567639e-05 -2.42220831e-05
      2.85366579e-04 2.62378686e-04 3.43778338e-05 3.43778338e-05
      1.97519694e-04 4.51176020e-04 3.20022300e-05 1.60610234e-05
      -3.30992712e-04 -1.50084088e-04 -8.42318550e-05 1.45170736e-04
      -1.42022793e-04 1.18620163e-04 -3.64621774e-05 4.04734856e-05
      -2.55122850e-05 -1.58381095e-04 -4.87987418e-05 3.73325906e-06
      3.23648070e-04 -1.80968400e-05 2.68247153e-04 2.68247153e-04
      9.09771188e-05 7.01932731e-05 -1.29239982e-06 -3.54075273e-05
      -2.97095889e-04 8.93928664e-05 -7.12937981e-05 1.33918336e-04
      -1.42022793e-04 1.04409002e-04 -7.04626946e-05 -1.38472766e-04
      -1.08272376e-04 -2.23376890e-04 -2.21242721e-04 -1.70067055e-04
      1.24878425e-05 -2.14757947e-05 -1.25369726e-04 6.97206342e-05
      7.11649482e-05 2.99371517e-04 -5.61433226e-05 -2.15675027e-05
      -3.03312787e-04 8.01937404e-06 -9.72050766e-05 2.07661324e-05
      -2.41963062e-05 3.15449928e-04 1.17560950e-04 5.66042145e-05
      1.56133046e-05 -8.17702239e-05 -2.07936464e-04 -9.11288880e-05
      9.36907691e-06 4.33732021e-05 -3.47564746e-05 2.14639058e-05
      -1.19758355e-04 2.19522030e-04 2.21366718e-04 -1.67237973e-04
      -1.33082984e-04 -4.31677545e-05 -2.21963201e-05 -5.37509623e-05
      -7.64403958e-05 2.57307052e-04 1.24524260e-04 1.60869880e-04</_>
    <_>
      4.40316908e-05 -3.71953720e-05 0. 2.04481665e-04 2.04481665e-04
      2.38474837e-04 2.38474837e-04 1.78679285e-04 1.45528698e-04
      -6.04766101e-05 -6.78386074e-04 -2.67155381e-04 3.64457548e-04
      1.36262155e-04 1.14611321e-04 8.95624762e-05 1.66164842e-04
      1.23839272e-04 1.12368223e-04 -1.39536205e-04 4.24988139e-05
      -1.94210370e-05 9.57646625e-05 2.04481665e-04 2.04481665e-04
      8.15020612e-05 9.46774453e-05 3.05224035e-04 2.69261946e-04
      -5.94000558e-05 -5.91412245e-04 -2.88296200e-04 3.05747264e-04
      7.75518638e-05 1.98630587e-04 2.02116120e-04 3.47853143e-04
      3.21382133e-04 1.13913491e-04 -2.77731509e-04 5.87176473e-05
      -6.81493111e-05 8.44275783e-05 2.04481665e-04 2.24888048e-04
      8.15020612e-05 1.70035724e-04 2.73400714e-04 1.10710062e-04
      -1.38927600e-04 -2.79399013e-04 -2.10427941e-04 3.82479979e-04
      -3.40278020e-05 1.44449921e-04 2.90413562e-04 3.50843184e-04
      1.13913491e-04 8.73504814e-06 -3.67501052e-05 1.22679077e-04
      1.75184236e-04 -2.81260654e-05 3.00246320e-04 2.33957355e-04
      8.15020612e-05 2.08201804e-04 1.15685041e-04 1.05139145e-04
      1.31848632e-04 -3.20685096e-04 -2.07384495e-04 3.82479979e-04
      2.96999260e-05 6.43355525e-05 2.21099996e-04 2.37318833e-04
      1.13913491e-04 8.73504814e-06 -3.25058245e-05 -6.99324228e-05
      -4.10476423e-05 2.04063890e-05 2.24888048e-04 3.18020670e-04
      1.73079170e-04 4.80257222e-05 1.15685041e-04 -2.76928677e-05
      -9.43703417e-05 -9.42350234e-05 -2.65027949e-04 -1.91142826e-05
      1.50047475e-04 6.43355525e-05 2.21099996e-04 2.46023876e-04
      1.13913491e-04 3.67196189e-05 -2.26892138e-04 6.51152004e-05
      2.90212483e-04 2.04063890e-05 2.33593077e-04 3.18020670e-04
      1.73079170e-04 -1.51613640e-04 1.01225873e-04 -7.83402138e-05
      -2.98099010e-04 -5.73659199e-05 -1.83039505e-04 -3.95206698e-05
      -1.61965727e-04 1.33833746e-04 2.21099996e-04 2.46023876e-04
      2.24296182e-05 -5.78077124e-05 -1.22922080e-04 9.34458731e-05
      2.73993646e-04 2.91114175e-05 2.42662383e-04 3.34239507e-04
      1.29030914e-05 -1.51613640e-04 -3.01387045e-04 -1.06376654e-04
      -4.13555535e-04 -1.91998352e-05 -6.95151539e-05 -9.32855182e-05
      -1.61965727e-04 1.33833746e-04 2.21099996e-04 2.46023876e-04
      2.24296182e-05 -2.75782913e-05 -4.75638044e-05 -2.70317287e-05
      1.98635360e-04 2.91114175e-05 3.72405571e-04 3.72405571e-04
      -4.04146995e-05 -4.84245902e-05 -4.43320314e-04 -4.95092900e-05
      3.78950404e-06 -2.94118945e-04 -7.25586069e-05 -6.52198069e-05
      -7.75381413e-05 1.33833746e-04 2.46023876e-04 2.46023876e-04
      2.24296182e-05 -2.75782913e-05 1.35874347e-04 2.44818402e-05
      1.86187506e-04 7.19199597e-05 3.08677845e-04 3.23933491e-04
      -3.70654889e-05 8.63158857e-05 -3.23711982e-04 -2.49993987e-04
      -2.42762053e-05 -1.07829692e-04 -7.25586069e-05 -2.12040890e-04
      -1.88278555e-05 1.42903038e-04 1.28063286e-04 3.09751602e-04
      8.61573499e-05 3.95432107e-05 7.17615840e-05 -1.60332740e-04
      1.56711802e-04 7.19199597e-05 2.83753994e-04 1.92790438e-04
      -4.10213943e-05 -2.00105482e-04 -1.56377166e-04 -1.11332418e-04
      1.59077572e-05 -1.07829692e-04 1.01573765e-04 -3.32518481e-04
      -1.88278555e-05 1.37132592e-04 1.48469670e-04 3.09751602e-04
      8.61573499e-05 3.79682679e-05 1.40936711e-04 -2.29956950e-05
      1.63199540e-04 7.19199597e-05 1.96977984e-04 1.70543630e-04
      6.72120223e-06 -2.48242490e-04 -2.35820062e-05 -2.63509166e-04
      1.59077572e-05 -1.07151791e-04 1.00898860e-05 -3.17393948e-04
      -3.65426713e-05 2.12490864e-04 1.63594203e-04 3.09751602e-04
      8.61573499e-05 -1.35453001e-05 -4.86431418e-05 6.12061922e-05
      1.63199540e-04 5.85724738e-05 1.12550406e-04 8.19264387e-05
      -3.93731852e-06 -3.48408998e-04 -2.31466911e-04 -9.69604953e-05
      -6.39137124e-06 -1.07829692e-04 5.93039385e-06 -2.12040890e-04
      -3.65426713e-05 2.03785836e-04 1.39764641e-04 3.09751602e-04
      9.52266564e-05 -3.62965984e-05 3.94893286e-05 -2.42065526e-05
      -1.82825934e-05 1.04425650e-04 -2.82035253e-05 -5.88274961e-05
      -3.73761623e-06 -1.12396163e-04 -4.53385379e-04 -6.46269938e-04
      -2.60336441e-04 -3.69454094e-04 -3.22356900e-05 -2.12467057e-04
      -4.23131278e-05 2.12490864e-04 1.39764641e-04 3.09751602e-04
      1.19071359e-04 3.49119473e-05 1.92130356e-05 1.41178738e-04
      1.63405712e-04 0. -3.94826420e-05 6.38442289e-05 -3.56612727e-05
      -2.45959764e-05 1.15856041e-04 -5.24011266e-04 -2.86313734e-04
      -3.69454094e-04 -1.30434391e-05 -4.93946136e-04 -1.33248614e-04
      -1.24822633e-04 1.48469670e-04 3.09751602e-04 1.19071359e-04
      -4.18601558e-05 -1.38009427e-05 1.23987862e-04 -2.24370568e-04 0.
      -7.76487286e-05 8.63123132e-05 -6.96398056e-05 -9.38013618e-05
      -2.65475595e-04 -4.00345365e-04 -1.50487627e-04 -1.86141522e-04
      -5.12340921e-05 -4.52924025e-04 -1.88452934e-04 -3.83062434e-04
      -2.51247751e-04 3.09751602e-04 1.24731756e-04 -8.77133280e-05
      -5.19670284e-05 2.09934879e-04 -2.42085385e-04 7.53582717e-05
      -1.02175800e-05 2.86534632e-05 1.24756683e-04 -7.79244365e-05
      -1.72437838e-04 -4.15548020e-05 -1.90671577e-04 -2.26325486e-04
      -1.55889808e-04 -1.65999329e-04 -6.24077147e-05 -1.76860267e-04
      -2.51247751e-04 -1.60042382e-05 2.56842119e-04 -4.45971273e-05
      -3.19265702e-04 3.42816405e-04 -1.04309111e-04 8.44275783e-05
      1.85729907e-04 1.90414197e-04 -6.36857876e-05 -1.10029250e-05
      -1.74913061e-04 -8.58971907e-05 1.18305426e-04 -1.42594377e-04
      -9.93403955e-05 -8.40723660e-05 -1.03694809e-04 -1.59145449e-04
      -2.33532919e-04 2.23543349e-04 3.48325993e-04 4.68867511e-05
      -1.23411242e-04 9.07122812e-05 -1.90438048e-04 1.11441848e-04
      2.37243483e-04 2.45336676e-04 2.06492696e-04 1.83741387e-04
      1.03611073e-05 -1.36040198e-05 -3.94799245e-05 -1.50646592e-04
      1.88657737e-04 -3.04820715e-04 -5.85754751e-05 9.22848703e-05
      1.87078826e-04 1.28476793e-04 2.88554176e-04 4.68867511e-05
      -1.65561971e-04 -2.11602601e-04 -2.40688096e-04 1.99579736e-05
      2.86688679e-04 2.55937892e-04 2.55937892e-04 2.17771812e-04
      1.49485175e-04 2.18994624e-04 1.75899768e-04 2.09101859e-06
      7.32041080e-05 -3.22580425e-04 -2.37495493e-04 5.41187874e-05
      1.17914606e-04 1.98466194e-04 2.37040600e-04 3.58730540e-05
      -3.46893721e-05 -1.59894611e-04 -2.51813966e-04 1.29316773e-04
      2.24316216e-04 1.93565429e-04 1.73159046e-04 1.93565429e-04
      6.89134249e-05 6.89134249e-05 2.04786207e-04 3.16967897e-04
      3.01501073e-04 -4.62656433e-04 2.97062998e-05 1.60057883e-04
      2.57726031e-04 1.89761166e-04 1.52613022e-04 5.34827050e-05
      -1.01647063e-04</_>
    <_>
      4.86008183e-04 2.12640880e-04 1.12660382e-04 1.98922760e-04
      2.36900087e-04 -9.10259550e-05 -1.63604636e-04 -2.83782225e-04
      -1.43844209e-05 -5.92756987e-05 -1.33490801e-04 2.75668601e-04
      3.31590454e-05 -2.08362326e-04 -3.05152585e-04 4.30435175e-05
      3.67536792e-04 5.57593768e-04 -1.62575656e-04 4.83165422e-06
      4.69249644e-04 1.54513094e-04 1.69581181e-04 2.53693201e-04
      5.49312645e-05 -2.20792586e-04 -1.50273394e-04 -2.97534687e-04
      -1.53283545e-04 -7.32647604e-05 -4.32880915e-05 2.24693053e-04
      2.93969351e-04 1.42904188e-04 -3.00508827e-06 1.89311377e-05
      3.33383912e-04 4.07463347e-04 -1.21726014e-04 8.17194959e-05
      2.38753040e-04 1.69902254e-04 2.51302030e-04 1.80954346e-04
      -1.00263191e-04 -3.30237672e-04 -2.01887724e-05 7.76746383e-05
      1.13965980e-04 1.11938323e-04 2.47099844e-04 1.62377895e-04
      4.86785895e-04 -7.46256846e-05 -2.73177604e-04 -3.36329307e-04
      6.47506677e-05 2.61780195e-04 -8.30014033e-05 1.12517453e-04
      7.90019403e-05 1.18923839e-04 3.20611434e-04 2.22937655e-04
      -1.06971474e-05 -3.17162107e-04 4.10176581e-05 -1.16636016e-04
      -1.57521645e-04 2.04287222e-04 2.17460110e-04 -1.79172257e-05
      1.60802490e-04 9.96055587e-06 -1.49648622e-04 -1.78468530e-04
      4.67864047e-05 2.15904467e-04 -2.73678179e-05 1.42381090e-04
      -6.25517569e-05 5.45905314e-05 -3.34965480e-05 1.19415832e-04
      9.92807963e-06 -8.09082412e-05 -3.66783468e-04 -1.86955687e-04
      -1.16565956e-04 3.34954268e-04 2.40951587e-04 4.63021133e-04
      2.50194658e-04 2.15809545e-04 9.54935895e-05 7.65801742e-05
      1.02236983e-04 1.29654480e-04 6.92436879e-05 -7.59243412e-05
      -3.89383749e-05 -1.16182287e-04 -1.67385064e-04 1.60271404e-04
      2.45221891e-04 -2.57190950e-05 -3.79639445e-04 -5.64543938e-04
      -2.04125870e-04 3.95167954e-05 4.81626601e-04 5.94115467e-04
      2.21532373e-05 -9.81525882e-05 1.37289462e-04 7.65801742e-05
      3.71109891e-05 8.68048082e-05 -4.52314816e-05 1.29825494e-04
      -1.38183706e-04 -1.26735409e-04 -2.02331707e-04 2.94330355e-04
      1.83761615e-04 -5.97335347e-05 -3.68681125e-04 -5.64543938e-04
      -2.84132955e-04 -1.36419942e-04 -7.75323279e-05 1.67438135e-04
      2.87176372e-04 -1.71034495e-04 -3.91040812e-05 -1.33600124e-05
      -1.29498021e-05 9.52856062e-05 -4.29997235e-05 1.36159229e-04
      -1.05815394e-04 3.53299183e-05 -1.20959317e-04 1.96739114e-04
      3.63377505e-04 -2.30754347e-04 -3.64250300e-04 -5.64543938e-04
      -2.84132955e-04 -1.67757389e-04 -1.36419942e-04 1.04696264e-04
      -1.04953804e-04 -1.35769413e-04 -6.73567556e-05 -1.04517618e-04
      -2.83787085e-05 -9.74617360e-05 -7.26850049e-05 1.97836762e-05
      -3.18700513e-05 1.56519774e-04 1.79778763e-05 -1.55483031e-05
      3.56228906e-04 -1.20853532e-04 -1.10278088e-04 -4.86040117e-05
      -7.75477602e-05 -2.63929920e-04 -2.47320160e-04 -1.19547440e-04
      -1.03089995e-04 -3.32152063e-04 -8.14142822e-06 6.97874293e-06
      1.67552989e-05 -5.60958433e-05 -4.30470573e-05 -8.56878032e-05
      -2.76866558e-05 -6.49165595e-05 1.55350208e-04 -9.56044387e-05
      1.01013706e-04 -2.50352859e-05 -2.51545338e-04 -6.07425645e-05
      -9.31644245e-05 -1.23644888e-04 -1.18592769e-04 -8.82200693e-05
      -3.64604784e-05 -3.53054231e-04 -7.95459418e-05 -1.43549682e-04
      1.63414242e-07 -1.13260830e-04 3.20469524e-04 8.60478394e-05
      4.69901970e-05 -1.17686424e-04 2.88422070e-05 1.02789854e-04
      2.33540384e-04 1.85545476e-04 -1.60430627e-05 1.90370745e-04
      -8.61508233e-05 9.30803217e-05 3.12015727e-05 -2.42524447e-06
      8.79048675e-05 -2.76852981e-04 -5.96113568e-05 -1.23992679e-04
      -1.16212148e-04 -1.29852720e-04 2.46612792e-04 1.31299515e-04
      7.07305953e-05 -1.67385559e-04 -2.58025993e-05 3.09004274e-04
      6.39448945e-06 6.41595398e-05 2.96623650e-04 3.46646557e-04
      1.75199719e-04 7.23495032e-05 -2.58205891e-05 -5.94474041e-05
      1.45802536e-04 -5.27993776e-04 -1.48154446e-04 -1.23992679e-04
      -2.76690535e-05 1.79057060e-05 1.28386509e-05 1.01905556e-04
      -1.87395301e-04 -2.27916214e-04 -2.83897156e-04 5.16891087e-05
      8.85936097e-05 1.65058391e-05 2.22899398e-05 8.52974626e-05
      2.57600750e-05 -1.50359692e-05 -1.13206057e-04 -1.46832870e-04
      1.56805967e-04 -4.22584533e-04 -1.48154446e-04 -1.15609757e-04
      -3.54495860e-05 1.73314736e-04 3.99205874e-06 -1.76207013e-05
      -3.49657086e-04 -1.01954553e-04 7.33460474e-05 6.48749265e-05
      4.08928725e-04 1.02437778e-04 1.08264227e-04 2.59650755e-04
      2.48030236e-04 3.84225452e-04 4.33164532e-05 -1.58493669e-04
      1.88326900e-04 -3.61279905e-04 -1.48154446e-04 -1.11426365e-04
      -8.98398139e-05 1.58647206e-04 -7.31849068e-05 4.92694162e-05
      -1.58889292e-04 2.47465305e-05 8.87749557e-05 -9.44219792e-05
      2.80213106e-04 4.03458864e-04 4.88525548e-04 1.97298650e-04
      1.52431341e-04 2.72971723e-04 4.98198096e-05 1.85051613e-04
      -5.24928364e-05 -2.82892230e-04 -4.90874692e-04 -2.10809725e-04
      8.01592760e-05 3.90929315e-04 -3.90320456e-05 -6.74553007e-07
      -9.14079976e-07 6.60866499e-05 4.97169531e-05 -3.65616552e-06
      3.43250940e-05 3.03928216e-04 7.68603568e-05 -8.21979920e-05
      2.14359607e-04 1.50808890e-04 3.96794640e-05 -1.72268250e-04
      -1.23511665e-04 -1.67194245e-04 -1.34169779e-04 -3.60829872e-05
      -6.49058566e-05 4.31907887e-04 1.22399797e-04 -1.25209859e-04
      -8.76069535e-05 -9.38947851e-05 9.08327565e-05 2.63408001e-04
      -6.93984257e-05 -3.36553458e-05 -1.31713590e-04 -2.54556187e-04
      1.41692493e-04 -1.99724873e-05 -1.73088745e-04 -1.90660012e-05
      4.05976380e-07 -1.54243564e-04 1.91547424e-05 7.46004753e-06
      6.43858148e-05 3.35715245e-04 -1.20687531e-04 -9.15834971e-05
      -8.60649452e-05 1.97582849e-04 -8.35106505e-07 1.68439045e-04
      4.93061889e-05 2.19239781e-04 -1.58808907e-04 -3.08143150e-04
      -2.09957027e-04 -1.88269205e-05 1.73187233e-04 7.59844479e-05
      -1.11776688e-04 -1.44649166e-04 -1.20212419e-04 1.83939002e-04
      2.37958273e-04 1.97015528e-04 3.85948661e-05 -1.31405061e-04
      -6.45556865e-05 1.96545167e-04 3.76930038e-05 -4.29580941e-05
      2.85518385e-04 9.38744852e-05 -1.68403305e-04 -3.19803919e-04
      -2.21617825e-04 3.09460193e-05 2.69306882e-04 -6.69785513e-05
      -2.26251854e-04 -9.36870420e-05 -1.39834214e-04 1.01757993e-04
      1.69201725e-04 3.20684107e-04 -7.89755213e-05 -1.14068891e-04
      -5.07777331e-05 2.47586402e-04 3.24323773e-04 5.61871639e-05
      3.34191864e-04 6.55675467e-05 -1.69756837e-04 -4.43714904e-04
      -3.75350966e-04 -6.49969006e-05 2.31811646e-05 -2.22068455e-04
      -1.47153638e-04 -2.54309387e-04 -5.42903263e-06 3.77754448e-04
      2.64020055e-04 1.95310640e-04 -3.20786821e-05 -4.08037595e-05</_>
    <_>
      -1.43639525e-04 -3.75904550e-04 1.39338415e-04 8.62300949e-05
      8.18243498e-05 3.81247635e-04 3.00558168e-04 -9.52349103e-04
      -1.09185698e-03 -6.01054926e-04 -5.05961361e-04 -1.15888531e-03
      -3.77690216e-04 -1.36776493e-04 1.94044856e-04 -1.46144826e-04
      -1.21066892e-04 -1.74786066e-04 8.32267033e-05 2.05699936e-04
      1.34436807e-04 -9.46496366e-05 7.08517182e-05 1.01971709e-04
      7.25183345e-05 3.81247635e-04 9.36500583e-05 -1.28386862e-04
      8.79678555e-05 -3.45353183e-04 -5.05446107e-04 -5.65638358e-04
      -1.11697285e-04 5.88317107e-06 8.62249362e-05 -1.46144826e-04
      -7.66162339e-05 -1.03934348e-04 1.73476103e-04 -1.98801878e-04
      8.56647530e-05 -9.61192709e-05 5.77800711e-05 2.20552483e-05
      4.48483988e-05 -2.00710710e-04 -2.58490792e-04 -4.73035689e-05
      3.66263004e-04 9.15434211e-04 -6.70384848e-04 -1.21399609e-03
      -3.50688992e-04 5.96903730e-04 -9.14588236e-06 1.93071537e-04
      -1.49710919e-04 -1.03934348e-04 1.59747695e-04 -8.22440197e-05
      -7.00587261e-05 3.20303137e-04 5.77800711e-05 2.20552483e-05
      1.65342906e-04 -1.87639060e-04 -2.58490792e-04 6.68397261e-05
      1.71323831e-04 3.19014420e-04 1.18446114e-04 -2.81365530e-04
      -3.85516410e-04 3.00076732e-04 1.78158705e-04 -1.90595485e-04
      -8.90215160e-05 2.79732689e-04 -4.08205960e-05 1.68466373e-04
      -5.14285457e-05 -9.61192709e-05 7.08517182e-05 2.20552483e-05
      1.32979389e-04 -1.80962190e-04 -2.67555530e-04 4.67014062e-04
      5.84656838e-04 7.19188771e-04 -2.90585399e-06 2.37952045e-04
      -2.34370498e-04 1.58908457e-04 2.50279292e-04 -1.90595485e-04
      -8.90215160e-05 2.27725453e-04 5.09969595e-06 2.20711809e-04
      -1.91193350e-04 3.19477782e-04 1.11668480e-04 1.38014380e-04
      -2.48202094e-04 -1.80962190e-04 -2.67555530e-04 4.57949325e-04
      4.57949325e-04 4.86646080e-04 4.55048546e-04 -4.83742151e-05
      -4.39243217e-04 1.58908457e-04 -9.78190728e-05 -1.46144826e-04
      -8.90215160e-05 1.42275458e-04 -4.08205960e-05 5.40854417e-05
      3.65011132e-04 3.19477782e-04 1.81166775e-04 2.11370498e-04
      -1.53612113e-04 -1.48577121e-04 1.46011036e-04 1.46011036e-04
      4.57949325e-04 3.68595298e-04 1.36029063e-04 -1.60591735e-04
      -5.44328977e-05 3.21137923e-04 -9.78190728e-05 -1.32203291e-04
      2.23793802e-04 1.42275458e-04 -2.10355691e-04 -1.12289534e-04
      4.10931418e-04 3.06406146e-04 2.07932957e-04 -1.79972674e-04
      -1.23501974e-04 -1.48577121e-04 1.46011036e-04 1.01560378e-04
      1.04412138e-04 2.57381034e-04 -2.64145288e-04 -4.93015163e-04
      3.00652784e-04 3.21137923e-04 -9.78190728e-05 -1.74786066e-04
      2.08880956e-04 1.42275458e-04 -2.01290954e-04 -1.25033484e-05
      4.10931418e-04 2.48626078e-04 1.82829594e-04 -1.86286314e-04
      -1.23501974e-04 -1.93027779e-04 1.01560378e-04 1.01560378e-04
      1.59340445e-04 1.36029063e-04 -1.19278498e-04 -4.22163430e-04
      5.95662277e-05 8.32260048e-06 -1.25489008e-04 -1.68472441e-04
      2.15194596e-04 1.48589083e-04 5.36820851e-04 1.03858700e-04
      -2.66543764e-04 1.87823476e-04 2.40693917e-04 -1.85944285e-04
      -1.74293760e-04 2.26153468e-04 1.20321885e-04 1.01560378e-04
      2.41937887e-04 2.31955913e-04 7.94762236e-05 -5.12441075e-05
      3.91989626e-04 8.32260048e-06 -1.54744033e-04 2.15194596e-04
      2.15194596e-04 1.48589083e-04 5.02614770e-04 1.03858700e-04
      -3.12464050e-04 1.74095083e-04 -1.72872649e-04 -1.85944285e-04
      -1.46623832e-04 1.85411889e-04 1.64772544e-04 1.71086169e-04
      2.28209479e-04 -1.68218423e-04 -3.69232032e-04 -9.38268786e-05
      3.91989626e-04 8.32260048e-06 -1.54744033e-04 2.40269728e-04
      1.33676251e-04 5.92350516e-05 1.32456727e-04 2.70595337e-04
      -8.59474239e-05 -6.77913631e-05 -1.72872649e-04 -2.43724353e-04
      -1.46623832e-04 1.72082480e-04 1.64772544e-04 1.71086169e-04
      4.13695998e-05 -4.80156712e-04 -5.42020774e-04 -1.34132555e-04
      8.32260048e-06 8.32260048e-06 -1.54744033e-04 2.53998151e-04
      1.47404658e-04 1.62317490e-04 1.46185121e-04 -4.79976385e-04
      1.35830051e-04 3.03071429e-05 -9.13543045e-05 -1.62206023e-04
      -1.62365453e-04 1.72082480e-04 1.55606540e-04 2.32771883e-04
      -7.99823683e-05 -2.01007439e-04 -5.42020774e-04 -1.28513668e-04
      -2.09324262e-05 -2.09324262e-05 2.28922989e-04 1.87392638e-04
      1.47404658e-04 1.62317490e-04 -5.06915036e-04 -1.55176953e-04
      3.98536242e-04 -3.28650960e-04 -1.07095919e-04 -1.62206023e-04
      1.52679451e-04 1.72082480e-04 -1.99479153e-04 1.72609856e-04
      -1.61500706e-04 -1.13447197e-04 -2.23364768e-04 1.72723623e-04
      -1.89273866e-04 -2.17258348e-04 1.33676251e-04 1.40139644e-04
      1.62317490e-04 7.29634558e-05 -4.21700272e-04 -1.55176953e-04
      1.54880239e-04 -6.25676417e-04 -1.14406466e-04 -1.77947644e-04
      1.81376236e-04 5.88606927e-05 6.17602782e-05 3.34300799e-04
      -3.38298414e-04 -1.71227264e-04 -2.23364768e-04 3.60028207e-04
      -2.04186697e-04 -2.75038416e-04 8.64232570e-05 -4.97917108e-06
      1.62317490e-04 1.62317490e-04 -2.34395688e-04 -1.73427310e-04
      8.40285284e-05 -6.40589278e-04 -1.60440017e-04 -2.33217172e-04
      1.80349394e-04 3.01639175e-05 -6.42087252e-05 2.89850141e-04
      -4.09150118e-04 7.16451541e-05 -2.94216472e-04 4.34295303e-04
      -2.75038416e-04 -2.47368473e-04 -5.86955539e-05 6.58725476e-05
      7.06138380e-05 1.62317490e-04 -2.53779144e-04 -4.15284361e-04
      1.09338334e-05 -3.24640598e-04 -1.92825086e-04 1.80349394e-04
      2.13081817e-04 -1.56602167e-04 -3.39176564e-04 2.89850141e-04
      -2.84339709e-04 -1.66516387e-04 -3.10125615e-04 4.34295303e-04
      -2.04186697e-04 -2.47368473e-04 -5.60732587e-05 3.72313043e-05
      1.00151658e-04 1.47404658e-04 2.46250071e-04 -1.56807655e-04
      -8.52242010e-06 2.03233853e-04 2.05828634e-04 4.12892055e-04
      1.97070171e-04 9.39052279e-06 2.57037682e-05 4.09116154e-04
      -1.65679739e-04 -9.67198430e-05 -9.91980269e-05 4.34295303e-04
      1.79480325e-04 1.36298549e-04 -5.60732587e-05 3.72313043e-05
      8.64232570e-05 1.47404658e-04 1.40592718e-04 -1.21328412e-04
      2.21062146e-04 1.78158705e-04 2.05828634e-04 3.35986551e-04
      3.15709418e-04 -9.26614484e-06 -2.29945508e-05 4.17625415e-04
      -8.58444982e-05 -2.00070237e-04 -9.91980269e-05 4.91418585e-04
      1.79480325e-04 2.98594096e-05 -1.68131286e-04 -3.36204139e-05
      4.75328416e-04 1.33676251e-04 -7.20426251e-05 -3.87020060e-04
      2.78185442e-04 5.58951113e-04 3.13148805e-04 4.21110861e-04
      3.40784551e-04 -2.29945508e-05 -2.29945508e-05 4.17625415e-04
      -8.58444982e-05 2.00104114e-04 2.09815233e-04 4.91418585e-04
      1.97244924e-04 2.42405222e-05 -1.20878285e-04 -4.37552153e-05
      -2.91545730e-04 -1.84225559e-04 2.34682782e-04 2.52704718e-04</_>
    <_>
      -1.06835876e-04 0. 0. 0. -2.40284993e-04 -2.40284993e-04
      -1.40169243e-04 2.87247403e-05 -3.15678364e-04 -2.94804104e-05
      1.07483756e-04 -1.38085059e-04 -2.21114460e-04 -5.93227451e-05
      -1.89548824e-04 -6.36736440e-05 0. 0. 2.12574087e-04
      9.24165797e-05 -1.56823022e-04 0. 0. 0. -2.40284993e-04
      -2.40284993e-04 -1.34250877e-04 3.27072950e-04 -3.81195641e-05
      2.92853481e-04 2.41275106e-04 1.80546621e-07 -6.77535427e-04
      -2.14654710e-06 -1.89548824e-04 -9.79592733e-05 -3.15987245e-06 0.
      -1.84340010e-04 -1.46661696e-04 6.75581396e-05 0. 0. 0. 0. 0.
      2.89821561e-04 3.77218472e-04 4.43881785e-04 5.26684336e-04
      1.75686087e-04 3.44661785e-05 -6.19807106e-04 -6.59732978e-05
      -1.89548824e-04 -9.79592733e-05 -2.34427225e-05 -6.41825100e-05
      2.82340698e-05 -1.65121761e-04 6.75581396e-05 0. 0. 0. 0.
      6.84997358e-05 3.42972373e-04 4.86643199e-04 4.98450245e-04
      6.46841829e-04 1.75686087e-04 -2.27797384e-04 -2.74924416e-04
      -6.58178833e-05 -1.89548824e-04 -2.53386970e-04 -2.34427225e-05
      -6.41825100e-05 2.82340698e-05 -1.65121761e-04 6.75581396e-05 0.
      0. 0. 0. 6.84997358e-05 3.86527419e-04 3.86527419e-04
      3.49520240e-04 3.65947257e-04 2.52461003e-04 -7.23697012e-05
      -6.25725428e-04 5.37018650e-06 -2.42699665e-04 -2.53386970e-04
      -4.69350562e-05 -6.41825100e-05 -1.46661696e-04 -1.65121761e-04
      6.75581396e-05 0. 0. 0. 0. 0. 4.24539430e-05 3.32308002e-04
      3.32308002e-04 3.86747182e-04 2.52461003e-04 -7.23697012e-05
      -2.10649509e-04 -9.36796787e-05 -2.42699665e-04 -9.79592733e-05
      -5.34152023e-05 -6.41825100e-05 -1.46661696e-04 -1.53314686e-04
      6.75581396e-05 0. 0. 0. 0. 0. 0. 2.55028019e-04 1.10953675e-04
      3.22564651e-04 1.88278500e-04 -7.23697012e-05 -5.71655575e-04
      -1.00159821e-04 -2.42699665e-04 -9.79592733e-05 -4.69350562e-05
      -6.41825100e-05 -1.46661696e-04 -1.53314686e-04 6.75581396e-05 0.
      0. 0. 0. 0. 0. 2.12574087e-04 1.35486363e-04 -9.26160938e-05
      1.88278500e-04 -3.10529198e-04 -4.53305947e-05 -1.43935002e-04
      -2.00245719e-04 -8.01923670e-05 -2.34427225e-05 -6.41825100e-05
      -1.46661696e-04 -1.53314686e-04 6.75581396e-05 0. 0. 0. 0. 0. 0.
      2.18492438e-04 -2.42359692e-05 4.92699801e-05 -3.98820976e-06
      6.06391368e-05 9.38095764e-05 -1.47094877e-04 -5.55053339e-05
      -5.72069490e-04 -3.15987245e-06 -6.41825100e-05 -1.46661696e-04
      -2.03301825e-04 -1.45015947e-04 0. 0. 0. 0. 0. 0. 6.84997358e-05
      -1.63304110e-04 4.92699801e-05 1.46913677e-04 3.88682784e-05
      -1.62210872e-05 -2.00245719e-04 -5.55053339e-05 -2.21268449e-04 0.
      -6.41825100e-05 -1.46661696e-04 -2.03301825e-04 -1.45015947e-04 0.
      0. 0. 0. 0. 0. 6.84997358e-05 -1.63304110e-04 -1.77007860e-05
      1.25108592e-04 1.21988442e-05 1.83513384e-06 -7.73991706e-05
      -1.52744087e-05 -4.65424528e-05 0. -6.41825100e-05 -1.34854621e-04
      -2.03301825e-04 -1.45015947e-04 0. 0. 0. 0. 0. 5.91835624e-06
      -1.04798637e-04 1.15916555e-05 -9.61408296e-05 1.02445811e-04
      5.32934719e-05 1.83513384e-06 -5.55053339e-05 -1.52744087e-05 0.
      0. -6.41825100e-05 -1.34854621e-04 -2.03301825e-04 -1.45015947e-04
      0. 0. 0. 0. 0. -1.71785257e-04 -1.48181221e-04 -3.59225596e-05
      -4.37813687e-05 3.04167363e-04 -2.67072901e-05 9.34246782e-05
      -1.52744087e-05 4.24539430e-05 0. 0. -6.41825100e-05
      -1.34854621e-04 -2.03301825e-04 -2.39901623e-04 1.25610642e-03
      7.00044839e-05 0. 0. -2.40284993e-04 -1.71785257e-04
      6.18647709e-06 -3.00379052e-05 -4.69412407e-05 2.04051597e-04
      1.12627917e-04 1.33655602e-04 4.24539430e-05 4.24539430e-05 0. 0.
      -6.41825100e-05 -1.34854621e-04 -2.03301825e-04 1.01620483e-03
      1.25610642e-03 7.00044839e-05 0. 0. -2.40284993e-04
      -1.04798637e-04 8.22046350e-05 -5.77937790e-05 -9.47701574e-06
      2.59911525e-04 1.35455091e-04 1.91383951e-04 9.12682008e-05
      4.24539430e-05 4.24539430e-05 0. -6.41825100e-05 -1.34854621e-04
      -1.47909508e-04 1.01620483e-03 7.00044839e-05 0. 0. 0.
      -2.34366642e-04 1.35486363e-04 1.46705243e-05 -2.59515335e-04
      8.54086611e-05 2.20983522e-04 2.10728045e-04 1.91383951e-04
      9.12682008e-05 4.24539430e-05 4.24539430e-05 0. -6.41825100e-05
      -1.29449443e-04 -1.47909508e-04 -1.93389467e-04 -2.34923355e-05 0.
      0. -2.40284993e-04 -2.34366642e-04 4.38968127e-05 -5.03207557e-05
      -2.59515335e-04 2.75903702e-04 4.26541432e-04 1.60737080e-04
      1.91383951e-04 9.12682008e-05 4.24539430e-05 4.24539430e-05 0.
      5.40517885e-06 -1.67127771e-04 -1.47909508e-04 -1.55809248e-04
      -5.45684816e-05 -3.10761461e-05 -5.45684816e-05 -2.94853467e-04
      -2.22040588e-04 9.30987953e-05 -5.77937790e-05 -2.59515335e-04
      3.78340017e-04 2.81941990e-04 6.39392965e-05 9.77460440e-05
      4.74930166e-05 1.89616094e-05 4.24539430e-05 5.40517885e-06
      5.40517885e-06 -5.87773320e-05 5.48905737e-05 -4.13399430e-05
      -3.15987245e-06 -3.15987245e-06 -3.15987245e-06 -9.64001811e-06
      5.88597140e-05 9.09295777e-05 -1.40185930e-05 -9.72009657e-05
      -8.86625712e-05 2.13211679e-04 -9.10416475e-06 -2.09112332e-05
      -1.06736406e-05 8.21792582e-06 -3.42360181e-05 -4.15298782e-05
      5.40517885e-06 5.40517885e-06 2.29786339e-04 -1.06569451e-05
      -2.24640135e-05 -1.75954381e-06 -1.75954381e-06 4.15881277e-06
      1.33726819e-04 5.83402907e-05 -8.63047535e-06 -1.15979528e-04
      -1.95566972e-05 -1.08966487e-04 6.99293787e-06 -9.12728228e-06
      1.01226069e-04 -2.99370367e-05 -2.02187075e-05 5.40517885e-06
      -1.07496669e-06 -4.91633036e-05 1.63410776e-04</_>
    <_>
      5.13329724e-05 3.11040239e-05 4.87486977e-06 6.34125099e-05
      6.34125099e-05 -4.51588247e-04 -1.45996906e-04 -3.03210363e-05
      -2.37854532e-04 -1.58975454e-05 -5.63766880e-05 -1.17228185e-04
      -3.15393663e-05 -1.07251843e-04 -1.11630376e-04 2.43373306e-05
      -2.53684393e-05 -2.53684393e-05 3.67007960e-05 -3.91856292e-06
      -1.20795348e-05 -2.94663314e-05 -6.29708520e-05 0. -7.99085756e-05
      -2.46731972e-04 2.31046706e-05 5.90593481e-05 5.39905159e-05
      1.13952265e-04 2.51713191e-05 -4.73979708e-05 -2.72363577e-05
      -1.07251843e-04 -1.75042878e-04 -2.16101234e-05 -2.53684393e-05
      -2.53684393e-05 -3.35705518e-05 -3.91856292e-06 4.99896996e-05
      -1.20795348e-05 -6.29708520e-05 0. -9.86191808e-05 -1.63702702e-04
      1.01563914e-04 1.77573631e-04 2.80124223e-04 3.06495465e-04
      1.05760737e-04 -5.82050925e-05 7.45081852e-05 -1.95595625e-04
      -1.75042878e-04 -2.16101234e-05 -8.87809438e-05 -8.87809438e-05
      -3.49138245e-05 4.17815909e-06 4.99896996e-05 -1.20795348e-05
      -6.29708520e-05 4.35251968e-05 -9.86191808e-05 1.58122366e-05
      2.03410760e-04 2.31275160e-04 4.17417323e-04 4.77594062e-04
      1.25665019e-05 -7.10809618e-05 2.55982268e-05 -2.13652165e-04
      -1.75042878e-04 -1.71769098e-05 -8.87809438e-05 -1.68689512e-04
      -1.45020647e-04 -2.94589449e-06 1.13402202e-04 -1.20795348e-05
      -3.23084860e-05 4.35251968e-05 -1.60866075e-05 1.53688015e-05
      2.29759200e-04 3.60365520e-04 3.85586231e-04 3.17411381e-04
      2.17101697e-05 -2.51440943e-05 -5.43103488e-05 -2.34786974e-04
      -1.98118287e-04 -1.71769098e-05 -1.68689512e-04 -1.98887763e-04
      -1.45020647e-04 1.05395620e-05 1.13402202e-04 -2.92564455e-05
      -4.94853957e-05 4.35251968e-05 1.14876357e-05 6.38219644e-05
      1.40408782e-04 3.00536049e-04 3.64803476e-04 6.99734373e-05
      1.35080572e-05 -2.74419945e-05 -1.15185876e-05 -2.34786974e-04
      -4.65414050e-05 -1.71769098e-05 -1.68689512e-04 -1.98887763e-04
      -1.45020647e-04 -6.93690090e-05 1.13402202e-04 -2.92564455e-05
      -4.94853957e-05 8.88323302e-06 0. -6.99265947e-05 5.41707814e-05
      2.74823484e-04 1.03620812e-04 4.81534262e-05 9.07484355e-06
      -8.58764633e-06 4.08157430e-05 -2.05450066e-04 -7.00922246e-05
      -1.71769098e-05 -1.68689512e-04 -1.98887763e-04 -1.45020647e-04
      -5.95650545e-06 1.13402202e-04 3.41560626e-05 -4.94853957e-05
      -8.29367673e-06 0. -6.99265947e-05 -1.80883741e-04 -6.43349558e-05
      1.70953354e-05 -1.13660375e-04 9.07484355e-06 1.35550625e-04
      4.90178536e-05 -1.13870105e-04 -1.59472638e-05 -4.51609412e-05
      -1.68689512e-04 -1.98887763e-04 -1.45020647e-04 -7.46784353e-05
      3.34936303e-05 3.41560626e-05 -4.94853957e-05 -1.27268904e-05 0.
      0. -2.32608450e-04 -1.05623825e-04 -2.01624076e-04 -2.79032247e-04
      -1.58564380e-05 7.38969684e-05 -1.81389197e-08 -7.21842225e-05
      -1.82451640e-05 -2.79840333e-05 -1.68689512e-04 -1.98887763e-04
      -1.45020647e-04 -7.02452235e-05 -4.57525130e-05 3.41560626e-05
      -4.94853957e-05 2.19150734e-05 0. 0. -2.51419668e-04
      -2.72894074e-04 -2.02727431e-04 -3.93012684e-04 -1.08008302e-04
      -1.78334463e-04 1.81549840e-04 2.17450015e-05 -1.82451640e-05
      -3.24172470e-05 -1.68689512e-04 -1.98887763e-04 -1.45020647e-04
      -7.02452235e-05 -4.57525130e-05 3.41560626e-05 -4.94853957e-05
      2.19150734e-05 0. 0. -1.63651366e-05 -3.36306577e-04
      -2.55385938e-04 -4.65750811e-04 -1.72178858e-04 -1.78334463e-04
      2.25688418e-04 -5.63837093e-05 -1.52645123e-04 -3.24172470e-05
      -1.96673558e-04 -1.98887763e-04 -5.09457677e-05 -7.02452235e-05
      2.66201587e-05 3.41560626e-05 -4.94853957e-05 2.19150734e-05 0. 0.
      1.50902733e-05 -1.23905818e-04 -6.09479466e-05 -4.67021746e-05
      -1.86444900e-04 -1.45917220e-04 -1.38662028e-04 -1.27577459e-05
      -1.17487711e-04 -4.95941567e-05 -2.01106770e-04 -1.98887763e-04
      -5.09457677e-05 -5.30683137e-05 -3.57808653e-06 1.06528729e-04
      -4.94853957e-05 2.19150734e-05 0. 0. 3.42975618e-05
      -2.03814387e-04 -1.38721211e-04 -5.06453252e-05 -1.21844321e-04
      -2.31645754e-05 -1.56013426e-04 -1.67752165e-04 -1.06835476e-04
      -8.42361187e-05 -1.12325819e-04 -1.98887763e-04 -5.09457677e-05
      -7.04551130e-05 1.52762605e-05 1.39562078e-04 -3.55152260e-05
      2.19150734e-05 0. 0. -4.56110138e-05 -1.94828626e-05
      2.09536961e-06 1.24734957e-04 2.39815039e-04 9.20929015e-05
      -1.51569708e-04 -1.54542198e-04 -1.28058409e-05 -2.01171031e-04
      -1.29502732e-04 -1.98887763e-04 -5.09457677e-05 -7.04551130e-05
      4.83096082e-05 6.71894086e-05 -2.73131154e-05 -4.95941567e-05 0.
      0. -1.54127683e-05 -1.94828626e-05 -7.46782405e-07 1.34590533e-04
      2.45688047e-04 1.97013264e-06 -1.74578854e-05 -1.29690059e-04
      -8.43974994e-05 -9.86333616e-05 -1.29502732e-04 -1.10106819e-04
      -5.09457677e-05 -7.04551130e-05 4.83096082e-05 3.07394330e-05
      -4.12832815e-05 -4.95941567e-05 0. 6.16536563e-05 -1.82549193e-05
      1.07153810e-05 2.94514630e-05 1.64788784e-04 1.56907103e-04
      2.47053304e-05 -3.63122344e-05 -1.42270699e-04 -1.03108112e-04
      -9.86333616e-05 -1.29502732e-04 -1.10106819e-04 3.78351760e-05
      1.54836835e-05 1.03920811e-05 1.67692651e-05 -4.12832815e-05
      -4.95941567e-05 0. 3.67223729e-05 7.87322915e-06 2.94514630e-05
      2.94514630e-05 1.64788784e-04 2.01631919e-04 -7.37954906e-05
      -1.16220806e-04 -1.42270699e-04 -1.03108112e-04 -9.86333616e-05
      -1.29502732e-04 -1.10106819e-04 -8.76465638e-05 1.54836835e-05
      -7.55030196e-05 -6.40792496e-05 -6.40792496e-05 -4.51609412e-05
      -2.27959699e-05 -5.20585745e-05 6.28505222e-05 8.44287570e-05
      6.92923495e-05 6.57925048e-05 1.99496601e-04 -7.37954906e-05
      -2.11346895e-04 -7.23441044e-05 -1.21962461e-04 -1.17487711e-04
      -7.71683990e-05 -1.10106819e-04 -8.76465638e-05 1.54836835e-05
      -7.55030196e-05 -6.62145685e-05 -6.62145685e-05 -7.00922246e-05
      -1.13712231e-04 -5.20585745e-05 -2.69187061e-04 -4.35219181e-06
      5.50338291e-06 1.43565776e-04 -3.55579214e-05 -1.04358267e-04
      -2.51628837e-04 -2.01462142e-04 -2.11023842e-04 -1.48836698e-04
      -7.71683990e-05 -7.99085756e-05 -8.76465638e-05 7.47024387e-05
      -9.12987525e-05 -6.62145685e-05 -8.77663297e-06 -7.00922246e-05
      -5.20585745e-05 -5.20585745e-05 -2.69187061e-04 -2.47608841e-04
      -2.37753251e-04 -9.14887569e-05 -1.17399907e-06 -1.25493068e-04
      7.22066325e-05 -1.64139608e-04 -1.87901096e-04 -1.48836698e-04
      -7.71683990e-05 -7.99085756e-05 -7.94444495e-05 8.29045530e-05</_>
    <_>
      1.22349098e-04 9.09509108e-05 2.00092050e-04 9.85710867e-05
      9.85710867e-05 0. 9.85710867e-05 2.52380618e-04 2.73823185e-04
      1.50906446e-04 -4.61813062e-04 -3.00671411e-04 -1.23637408e-04
      4.55572481e-05 2.85115093e-05 2.58948476e-05 2.58948476e-05
      2.58948476e-05 3.19466169e-04 -2.93369631e-05 -2.86671217e-04
      7.83920186e-05 1.01520964e-04 0. 0. 0. 4.77222529e-05
      5.03405987e-04 4.73785854e-04 4.25322272e-04 -3.50033661e-04
      -9.40069949e-05 2.39084056e-05 1.30878761e-04 -7.00595774e-05 0.
      9.85710867e-05 9.85710867e-05 -4.14978276e-05 -1.13746013e-04
      1.70524290e-04 2.41469272e-04 1.01520964e-04 0. 0. 0.
      1.21651719e-04 4.12807422e-04 1.51961649e-04 3.95915180e-04
      -5.71024684e-05 -9.40069949e-05 1.53751462e-04 3.23076820e-05
      -7.00595774e-05 0. 0. -1.18672382e-04 1.03641411e-04
      -2.07833800e-04 1.70524290e-04 8.09642515e-05 4.87600264e-05
      1.01520964e-04 0. 2.44986120e-04 1.60733282e-04 3.36686819e-04
      3.02426924e-04 5.21425449e-04 3.37758684e-05 9.99463446e-05
      6.42201630e-05 -5.99519772e-05 -7.00595774e-05 0. 0.
      -1.18672382e-04 1.03641411e-04 -7.25640639e-05 1.85601253e-04
      6.07457223e-05 8.16056563e-05 1.01520964e-04 0. 2.44986120e-04
      2.22916533e-05 5.56394865e-04 4.06665058e-04 2.52747443e-04
      3.86360975e-04 9.99463446e-05 5.61736815e-05 -5.99519772e-05
      -1.09141140e-04 0. 0. -1.18672382e-04 1.53470522e-04
      -3.27741203e-04 2.51659629e-04 6.07457223e-05 8.16056563e-05
      1.01520964e-04 0. 0. -1.31287088e-04 2.57935841e-04 5.65926566e-05
      2.35251689e-04 3.86360975e-04 2.38268141e-04 7.78895846e-05
      -2.54312094e-04 -1.09141140e-04 0. 0. -1.18672382e-04
      -1.87669139e-05 -3.26378329e-04 2.41915739e-04 1.96015448e-04
      4.51407577e-05 1.01520964e-04 0. -2.38322202e-04 -1.41394688e-04
      -4.13139824e-05 -2.87874514e-04 1.47771527e-04 3.86360975e-04
      2.38268141e-04 -8.43632097e-06 -2.54312094e-04 -1.09141140e-04 0.
      0. -1.18672382e-04 6.75589908e-05 -2.29974015e-04 1.55589834e-04
      1.59316813e-04 8.16056563e-05 1.01520964e-04 0. -2.49941659e-04
      -2.39380432e-04 -4.58688039e-04 -1.69806633e-04 -4.24221398e-05
      3.86360975e-04 6.60307051e-05 9.41677572e-05 -1.88881240e-05
      -9.90335393e-05 0. 0. -1.18672382e-04 1.44027763e-05
      -2.25690179e-04 2.05418954e-04 1.59316813e-04 1.01520964e-04
      1.01520964e-04 -1.19649812e-04 -2.49941659e-04 -3.97686992e-04
      -2.54299521e-04 -4.53690765e-04 -1.41049941e-05 5.87571994e-04
      -4.48971223e-05 7.81264025e-05 -1.88881240e-05 -9.90335393e-05
      -5.27609336e-05 0. -1.18672382e-04 -1.11393601e-04 -3.01492430e-04
      -3.18977400e-04 1.59316813e-04 1.01520964e-04 1.01520964e-04
      -1.31269277e-04 -2.71338184e-04 -6.76836760e-04 -4.83805983e-04
      -2.97704857e-04 1.86018602e-04 5.45607065e-04 3.07906084e-05
      -2.95960363e-05 8.78728679e-06 -9.90335393e-05 -5.27609336e-05 0.
      -1.18672382e-04 -1.73634748e-04 -1.43597223e-04 -2.73936312e-04
      1.59316813e-04 1.01520964e-04 -2.97483111e-05 -1.31269277e-04
      -2.71338184e-04 -4.89630271e-04 -3.15457757e-04 -9.41706821e-05
      4.81625721e-05 3.10183095e-04 -2.22969466e-05 -2.95960363e-05
      8.78728679e-06 -9.90335393e-05 -5.27609336e-05 0. -1.18672382e-04
      -3.94539638e-05 -1.18284610e-04 -8.08182904e-06 2.04357886e-04
      1.01520964e-04 -2.97483111e-05 -1.31269277e-04 -2.71338184e-04
      -5.07377728e-04 -1.19413016e-04 -3.72216091e-05 1.57824004e-04
      1.98935901e-04 -1.24664206e-04 5.67298666e-05 4.06445979e-05
      -1.04779417e-06 -5.27609336e-05 0. -1.18672382e-04 -9.90269691e-05
      -2.12308114e-05 -8.08182904e-06 1.45373138e-04 1.01520964e-04
      -2.97483111e-05 -1.31269277e-04 -3.02755885e-04 -3.14438308e-04
      -5.06944954e-04 -6.16530364e-04 -2.88048730e-04 -3.78820077e-05
      -1.24664206e-04 -1.02001504e-04 4.06445979e-05 -1.04779417e-06
      -5.27609336e-05 0. -1.18672382e-04 -1.01193749e-04 -7.10599270e-05
      1.83695010e-04 4.95413260e-04 1.01520964e-04 -2.97483111e-05
      -1.31269277e-04 -3.89081804e-04 -1.64742261e-04 6.48215137e-05
      -4.60274576e-04 -2.79487605e-04 -3.78820077e-05 -3.49616166e-04
      -3.37967416e-04 -9.06246787e-05 -3.62537830e-05 -1.09141140e-04 0.
      -1.18672382e-04 -1.13285976e-04 -1.69048784e-04 5.22582850e-04
      2.71649100e-04 1.01520964e-04 -1.19649812e-04 -2.91136443e-04
      -3.77462333e-04 -2.72827333e-06 -1.47025581e-04 -5.24051778e-04
      -2.65088660e-04 8.18324697e-05 -3.59723752e-04 -4.37171839e-04
      -1.76950576e-04 -1.22579688e-04 -2.93393648e-04 0. -1.18672382e-04
      -1.11119196e-04 -9.89154869e-05 4.77541762e-04 -6.72387032e-05
      1.01520964e-04 0. -1.71486623e-04 -8.19553243e-05 -1.07607106e-04
      -1.18360374e-04 -3.74423777e-04 -2.63882917e-04 -2.01258343e-04
      -3.28140042e-04 -1.89262093e-04 -3.43410589e-04 -3.62537830e-05
      -2.93393648e-04 -1.94360109e-04 0. 2.45989231e-05 -2.56990053e-04
      1.12525348e-04 -1.32327114e-04 1.01520964e-04 0. -1.71486623e-04
      -1.68281229e-04 1.99998729e-04 -1.57736315e-04 -2.22824732e-04
      -1.77557013e-04 -1.39017196e-04 -4.90840408e-04 -5.79928164e-05
      -2.98467232e-04 8.78728679e-06 -2.93393648e-04 0. 1.70457388e-05
      -3.50920833e-04 -1.95041706e-04 -2.49128734e-05 -3.88972752e-04
      1.01520964e-04 0. -1.71486623e-04 2.04119333e-05 4.97496039e-05
      -1.08520602e-04 -2.52508384e-04 -1.96321766e-04 -2.34920051e-04
      -1.99442642e-04 -1.34052956e-04 -2.12141327e-04 2.03147400e-04
      -9.80770710e-06 7.01332901e-05 7.01332901e-05 -3.52283736e-04
      -1.58576804e-04 -1.01588979e-04 -3.88972752e-04 1.01520964e-04 0.
      -1.71486623e-04 2.04119333e-05 5.94934936e-05 -8.13281149e-05
      -6.93384500e-05 2.91169476e-04 1.82091695e-04 -2.76341016e-04
      -1.93989676e-04 -2.43964823e-04 2.17896391e-04 0. 7.01332901e-05
      7.01332901e-05 -3.30887211e-04 -1.75174151e-04 -2.71283003e-04
      -2.71927478e-04 -7.07164727e-05 0. -8.19553243e-05 2.04119333e-05
      5.94934936e-05 -1.41717523e-04 -5.95945603e-05 2.62662827e-04
      3.67299945e-04 -3.05980429e-05 -2.91975419e-04 -6.62911552e-05
      -8.92263324e-06 1.70457388e-05 7.01332901e-05 7.01332901e-05
      -1.73279244e-04 -2.73812882e-04</_>
    <_>
      2.09427344e-05 -4.38363604e-05 -9.18896512e-06 2.92907953e-05
      2.92907953e-05 -1.61591917e-04 -2.02723473e-04 -1.75725319e-04
      -2.31812237e-06 5.36140215e-05 8.66148839e-05 1.14327922e-04
      2.81274406e-05 -1.30558954e-04 -1.24795901e-04 -2.78456155e-05
      2.92907953e-05 2.92907953e-05 -5.17413719e-05 -2.09101745e-05
      -8.89061630e-05 -6.90002926e-05 -6.05342393e-05 0. 0.
      -1.61591917e-04 -1.23450634e-04 -1.36996037e-04 -6.72343085e-05
      -2.49439381e-05 1.38494055e-04 1.47775369e-04 1.18484568e-04
      -6.93812908e-05 -4.53117755e-05 -5.95994570e-05 7.23631774e-06
      2.92907953e-05 -5.35891049e-05 -2.09101745e-05 -5.62272326e-05
      -5.17639601e-05 -6.05342393e-05 0. -2.22746621e-05 -5.11334474e-05
      -1.17244097e-04 -9.54278657e-05 -5.86108690e-05 3.61831662e-05
      1.65580408e-04 1.13896356e-04 2.06926808e-04 -1.02298409e-05
      -3.75449781e-05 -5.95994570e-05 -2.20544789e-05 0. -8.10321726e-05
      -4.95340682e-05 -6.64570762e-05 -7.39925163e-05 -2.88596839e-05
      6.66901144e-07 -2.22746621e-05 2.54201914e-05 -1.17244097e-04
      -9.44434651e-05 -3.61187040e-06 1.14544615e-04 1.65580408e-04
      1.25262435e-04 5.09179299e-05 -5.33459825e-05 -6.19694183e-05
      -3.22843189e-05 0. 0. -8.10321726e-05 -4.95340682e-05
      -6.44814136e-05 -8.42223599e-05 -3.54571748e-05 6.66901144e-07
      3.12109223e-05 2.14134998e-05 -1.16259696e-04 -3.94444651e-05
      -5.15227248e-06 1.14544615e-04 2.24880903e-04 1.43259080e-04
      3.90932946e-05 -6.51706214e-05 -5.17395783e-05 -5.17395783e-05 0.
      0. -8.10321726e-05 -1.13124224e-04 -6.44814136e-05 -8.42223599e-05
      -3.90895257e-05 -9.56294025e-06 -2.22746621e-05 -8.69660435e-05
      -1.04704581e-04 -4.51117303e-05 2.00144805e-05 1.41192853e-04
      1.38809686e-04 4.94210653e-05 3.90932946e-05 -1.48050516e-04
      -7.37940572e-05 -5.17395783e-05 -3.16745572e-05 0. -6.04308116e-05
      -9.58878882e-05 -2.89840827e-05 -8.42223599e-05 -3.90895257e-05
      -9.56294025e-06 -8.28799020e-05 -1.85898840e-04 -2.47085758e-04
      -1.17387070e-04 -1.54828540e-05 4.45112128e-05 8.06754470e-05
      4.81242751e-05 -2.64026221e-05 -1.37696668e-04 -8.03915464e-05
      -7.37940572e-05 -5.17395783e-05 0. -6.04308116e-05 -6.65970874e-05
      -3.67508801e-05 -1.94342283e-05 -1.70350468e-05 -9.56294025e-06
      -1.59928859e-05 -1.85898840e-04 -2.82583089e-04 -3.03184119e-04
      -1.18621974e-04 -2.53396393e-05 5.33603088e-05 1.30423423e-05
      -8.67085109e-05 -1.88703110e-04 -5.78335930e-05 -8.40239009e-05
      -5.83370711e-05 0. -6.04308116e-05 -4.72260544e-05 -2.89840827e-05
      4.62102253e-05 -1.70350468e-05 -9.56294025e-06 -4.32205889e-05
      -1.45492100e-04 -1.77648704e-04 -1.70064566e-04 -1.74328452e-04
      -3.75741911e-05 5.17395783e-05 -9.96779181e-06 -3.76378557e-05
      -1.88403748e-04 -1.51671600e-04 -5.15433858e-05 -6.19694183e-05
      -6.59749321e-06 -6.04308116e-05 -3.85152380e-05 -3.08318158e-05
      1.07128926e-05 -1.70350468e-05 -9.56294025e-06 -4.32205889e-05
      -1.13666196e-04 -1.93729778e-04 -1.43049590e-04 -1.31778201e-04
      -2.12576997e-05 1.03594015e-04 1.86841789e-05 -3.92585898e-05
      -1.19673990e-04 -1.50815016e-04 -6.64570325e-05 -6.19694183e-05
      -4.19043972e-05 -6.04308116e-05 -4.62820353e-05 -3.08318158e-05
      1.07128926e-05 -1.70350468e-05 -9.56294025e-06 -2.88563006e-05
      -1.13666196e-04 -1.90097431e-04 -1.68708037e-04 -1.31778201e-04
      -4.26208935e-05 9.76656738e-05 5.05100834e-05 -2.90287480e-05
      -7.06033388e-05 -1.83805765e-04 -1.32123329e-04 -6.19694183e-05
      -5.44973118e-05 -2.45425217e-05 -5.20450812e-05 -3.30856674e-05
      1.07128926e-05 -1.70350468e-05 -9.56294025e-06 -5.91233547e-05
      -1.05899402e-04 -8.03831354e-05 -8.03831354e-05 -9.54245406e-05
      -4.26208935e-05 2.72056168e-05 5.05100834e-05 -6.97426913e-06
      -9.57919256e-05 -1.30320186e-04 -1.59438467e-04 -8.40239009e-05
      -5.44973118e-05 -7.42704869e-05 -4.54475885e-05 -3.30856674e-05
      1.66412356e-05 -1.70350468e-05 6.66901144e-07 -5.33603088e-05
      -5.33603088e-05 -8.48499330e-05 -6.53890238e-05 -7.72108979e-05
      -2.14987285e-05 1.21833073e-05 4.39125906e-05 -3.92585898e-05
      -1.11036104e-04 -8.12495346e-05 -1.76674788e-04 -6.19694183e-05
      -5.08649646e-05 -7.42704869e-05 -4.18152413e-05 1.59849878e-05
      1.66412356e-05 6.66901144e-07 6.66901144e-07 0. -5.33603088e-05
      -3.80738893e-05 -3.80738893e-05 -3.04348487e-05 2.74080157e-05
      4.36328919e-05 7.17676885e-05 -3.92585898e-05 -1.11036104e-04
      -5.56542909e-05 -1.76674788e-04 -6.19694183e-05 -8.43357441e-07
      -7.42704869e-05 -4.18152413e-05 1.59849878e-05 6.63960018e-05
      6.66901144e-07 0. 0. 0. -1.70562529e-07 -6.76805575e-06
      -3.45617082e-05 6.68551365e-06 4.15509057e-05 4.10897737e-05
      -4.67306927e-05 -1.28272441e-04 -1.05997780e-04 -6.03125336e-05
      -5.17395783e-05 0. -7.42704869e-05 -5.70594166e-05 1.59849878e-05
      5.47841737e-05 6.66901144e-07 -1.02298409e-05 0. 2.13894036e-05
      -5.24046518e-05 -5.19101413e-05 -1.07279839e-05 3.05192407e-05
      1.94964286e-05 7.44722229e-06 -1.40068820e-04 -1.21674944e-04
      -3.51626986e-05 -4.80789422e-05 -5.17395783e-05 0. -7.42704869e-05
      -6.11862779e-05 -3.30856674e-05 -4.99393391e-05 -6.80520498e-06
      -3.63234790e-06 -8.28799020e-05 -1.11738533e-04 -5.24046518e-05
      -4.47656166e-05 -4.47656166e-05 -6.91619571e-05 -2.20133097e-05
      -6.07123111e-05 -1.58010705e-04 -1.18042597e-04 -3.51626986e-05
      -2.60244651e-05 -4.42674718e-05 0. -1.05409010e-04 -7.84226140e-05
      -3.90140085e-05 -8.33569939e-05 -2.96279632e-05 0. -1.11073459e-04
      -1.11738533e-04 -1.63478107e-04 -1.27645515e-04 -1.26978615e-04
      -6.91837922e-05 -4.61335230e-06 -6.07123111e-05 -2.28732621e-04
      -1.95284971e-04 -5.60397930e-05 -1.03266844e-04 5.34855826e-05 0.
      -1.05409010e-04 -7.84226140e-05 4.15440918e-05 -5.16824402e-05
      -1.70350468e-05 -9.31097384e-05 -1.18840253e-04 -9.74508512e-05
      -1.71244901e-04 -1.31277862e-04 -1.52000372e-04 -9.41869221e-05
      -4.61335230e-06 -1.57304254e-04 -2.47585907e-04 -9.28349546e-05
      -3.39853177e-05 -9.86551240e-05 5.34855826e-05 0. -2.25291114e-05
      -1.59476367e-05 -1.06503021e-05 -1.70350468e-05 -9.56294025e-06
      -8.94773912e-05 -6.92572939e-05 -1.84606441e-04 -2.58400512e-04
      -1.70203362e-04 -1.90925857e-04 -1.28956133e-04 -4.61335230e-06
      -1.47984189e-04 -2.19392343e-04 -8.10103156e-05 -6.30136783e-05
      -3.47207533e-05 5.34855826e-05 0. -2.25291114e-05 -1.59476367e-05</_>
    <_>
      -1.95906076e-04 -6.09925446e-05 8.84101973e-05 0. 0. 0.
      -1.09953420e-04 -2.79132451e-04 -4.35330352e-04 -1.83699201e-04
      -1.93645887e-04 -3.68940469e-04 -4.15708579e-04 -3.58057587e-04
      -6.85449122e-05 -4.10535613e-05 -4.10535613e-05 -4.10535613e-05
      4.68036487e-05 9.90452099e-05 -1.51989094e-04 -1.21526282e-04
      8.84101973e-05 0. 0. 0. -7.01137396e-05 8.76757986e-06
      2.69230164e-04 1.19828292e-04 -9.87525164e-06 -2.29807076e-04
      -3.74655036e-04 -3.56391422e-04 -2.74913509e-05 -4.10535613e-05
      -4.10535613e-05 -4.10535613e-05 0. 5.68628056e-05 7.70011611e-05
      -6.38494166e-05 8.84101973e-05 0. 0. -9.71791669e-05
      2.84310704e-06 1.43579062e-04 2.69231066e-04 4.56686481e-04
      8.60277723e-05 -3.40348517e-04 -4.58428025e-04 -7.88142643e-05
      -2.74913509e-05 0. -4.10535613e-05 -4.10535613e-05 4.68036487e-05
      1.57680057e-04 -5.13050873e-05 -1.29032096e-05 8.84101973e-05
      8.84101973e-05 0. -9.58486198e-05 2.84310704e-06 1.78521455e-04
      2.69231066e-04 4.56686481e-04 3.50588030e-04 -1.31777517e-04
      -3.78445053e-04 -7.88142643e-05 0. -4.10535613e-05 -4.10535613e-05
      0. -4.22614939e-05 1.44905804e-04 -5.13050873e-05 -1.29032096e-05
      8.84101973e-05 8.84101973e-05 0. -9.58486198e-05 2.84310704e-06
      2.70176010e-04 3.58773716e-04 5.21842041e-04 3.50588030e-04
      -1.17703923e-04 -2.77630141e-04 -2.74913509e-05 0. -4.10535613e-05
      -4.10535613e-05 0. -4.22614939e-05 1.09228771e-04 -5.13050873e-05
      -1.29032096e-05 8.84101973e-05 8.84101973e-05 -9.71791669e-05
      -9.71791669e-05 -9.71791669e-05 9.97884126e-05 1.41104116e-04
      4.33431822e-04 5.21615206e-04 -1.20636199e-04 -3.04695568e-04
      -2.74913509e-05 -4.10535613e-05 -4.10535613e-05 -4.10535613e-05 0.
      -4.22614939e-05 7.52516498e-05 -5.13050873e-05 8.09666744e-06
      8.84101973e-05 8.84101973e-05 -9.71791669e-05 -9.71791669e-05 0.
      1.67726757e-04 1.00002035e-04 4.07054904e-04 4.80976829e-04
      -9.21414903e-05 7.93945292e-05 0. -4.10535613e-05 -4.10535613e-05
      0. 0. -1.43699712e-04 -1.19893106e-04 -5.13050873e-05
      8.09666744e-06 6.65797488e-05 -8.76896593e-06 -9.71791669e-05
      -9.71791669e-05 0. 1.46726874e-04 1.10109031e-04 3.21597210e-04
      2.21281822e-04 -9.09727823e-05 8.90540468e-05 0. -4.10535613e-05
      -4.10535613e-05 0. 0. -1.43699712e-04 -3.17490631e-04
      -5.13050873e-05 8.09666744e-06 8.84101973e-05 -8.76896593e-06
      -9.71791669e-05 -9.71791669e-05 0. 9.90452099e-05 9.79103570e-05
      2.95026897e-04 4.31801127e-05 -1.45969549e-04 6.80541707e-05
      -4.10535613e-05 -4.10535613e-05 -4.10535613e-05 0. 0.
      -8.87029528e-05 -3.58129008e-04 -1.95287910e-04 8.09666744e-06
      8.84101973e-05 -8.76896593e-06 -9.71791669e-05 0. 0. 0.
      9.92409041e-05 2.28670353e-04 9.40330865e-05 2.58930941e-05
      9.91867710e-05 -4.10535613e-05 -4.10535613e-05 0. 0. 0.
      -1.36259012e-04 -3.58129008e-04 -1.95287910e-04 8.09666744e-06
      -8.76896593e-06 -8.76896593e-06 -9.71791669e-05 0. 0.
      2.57348784e-05 9.92409041e-05 -9.56556596e-06 2.73022870e-05
      -5.21378206e-06 9.91867710e-05 -4.10535613e-05 -4.10535613e-05 0.
      0. -1.63817167e-05 -6.73278628e-05 -3.58129008e-04 -1.22604470e-04
      8.09666744e-06 -8.76896593e-06 -8.76896593e-06 -9.71791669e-05 0.
      0. 8.34272505e-05 -8.16893407e-06 -3.38012323e-05 4.15545474e-05
      7.23443154e-05 5.81332133e-05 -4.10535613e-05 -4.10535613e-05 0.
      0. 0. -6.73278628e-05 -5.54980186e-04 -9.51131224e-05
      -1.29032096e-05 -8.76896593e-06 -8.76896593e-06 -9.71791669e-05 0.
      -1.53977144e-05 6.80295343e-05 3.81821774e-05 -2.04048993e-04
      8.21929498e-05 9.28442169e-05 5.81332133e-05 -4.10535613e-05 0. 0.
      0. 0. -1.12022599e-05 -4.26673942e-04 9.06284040e-05
      4.03643353e-04 1.33728230e-04 -8.76896593e-06 0. 0.
      -7.06472129e-05 6.80295343e-05 3.81821774e-05 -1.31365567e-04
      1.93457294e-04 1.33610607e-04 5.81332133e-05 -4.10535613e-05 0. 0.
      0. -1.63817167e-05 -3.86936081e-05 -4.26673942e-04 6.67841348e-04
      3.05328082e-04 -8.76896593e-06 -9.71791669e-05 0. -7.62493728e-05
      -1.38054611e-05 6.80295343e-05 -2.39839050e-04 -4.29553620e-05
      1.36615548e-04 7.47687955e-05 5.81332133e-05 -4.02721889e-05 0.
      -5.13229170e-05 0. 0. -1.12022599e-05 -3.91190959e-04
      6.67841348e-04 -1.16846648e-04 -8.76896593e-06 -9.71791669e-05 0.
      -7.62493728e-05 -3.48053363e-05 1.03512517e-04 -3.04713118e-04
      -5.40649962e-05 1.36615548e-04 1.52662018e-04 5.81332133e-05
      -4.02721889e-05 -5.13229170e-05 -5.13229170e-05 0. 0.
      2.42807218e-05 -2.94011785e-04 1.03169426e-04 -7.98004985e-05
      -8.76896593e-06 0. 0. -7.62493728e-05 -2.92197183e-05
      1.03512517e-04 -2.89315416e-04 -6.31211878e-05 1.46427643e-04
      1.52662018e-04 -3.96428550e-06 -4.45312398e-05 -5.13229170e-05
      -5.13229170e-05 0. 3.54829826e-05 -2.36918640e-05 -2.29891652e-04
      1.85533616e-04 4.77717986e-05 8.84101973e-05 0. 0. -7.62493728e-05
      -2.92197183e-05 6.97383803e-05 -2.21905080e-04 -1.33355046e-04
      2.94805621e-04 2.13195759e-04 2.28350236e-05 -3.47767673e-06
      -5.13229170e-05 -5.13229170e-05 3.54829826e-05 3.54829826e-05
      -1.99395854e-05 -1.64251484e-04 2.51787773e-04 4.77717986e-05
      8.84101973e-05 0. 0. -5.05144999e-05 -1.38220039e-05
      8.51360965e-05 -1.49221654e-04 -1.48576131e-04 2.94805621e-04
      2.13195759e-04 8.49325224e-05 -3.47767673e-06 -7.31533655e-05
      -5.13229170e-05 3.54829826e-05 3.54829826e-05 -1.05030071e-04
      -2.65953986e-05 1.24844941e-04 4.77717986e-05 8.84101973e-05 0. 0.
      -1.94076219e-05 -1.38220039e-05 4.96531138e-05 -1.70333005e-04
      4.90213897e-05 3.77169781e-04 2.13195759e-04 8.49325224e-05
      -2.53081271e-05 -7.31533655e-05 -1.58399343e-05 -1.62114535e-04
      -1.62114535e-04 3.12239354e-05 2.60684523e-04</_>
    <_>
      1.73820972e-05 0. 0. 0. 1.08632543e-04 -1.05655272e-04
      -6.86637723e-05 -1.14431808e-04 -3.60184299e-06 -3.60184299e-06
      -7.13667032e-05 -2.68639469e-05 1.23386402e-04 -1.40472057e-05
      -6.60696387e-05 -7.42339125e-06 -1.39631511e-05 -1.39631511e-05
      -1.39631511e-05 -2.18303121e-05 1.73820972e-05 -7.86716100e-06 0.
      0. 2.81775247e-05 1.46035418e-05 -2.82108886e-05 -1.41407261e-04
      4.38711868e-06 -8.88006834e-05 -7.25448044e-05 -9.52346818e-05
      1.09156106e-04 2.04040934e-05 -2.95548380e-05 1.71976735e-05
      2.56486328e-05 -1.39631511e-05 1.88641116e-05 5.39794310e-05
      9.51493621e-06 -7.86716100e-06 -7.86716100e-06 0. 4.56238104e-06
      -5.18260349e-05 -8.04550218e-05 -8.50188444e-05 -9.69125904e-05
      -1.23243284e-04 -1.33680674e-04 -7.31032342e-05 5.06323449e-05
      -5.60000881e-05 -2.95548380e-05 1.71976735e-05 2.56486328e-05
      1.88641116e-05 1.88641116e-05 5.90418458e-05 -1.73333974e-05
      -4.70351733e-05 -7.86716100e-06 0. 4.56238104e-06 -8.04550218e-05
      -8.04550218e-05 -8.16611209e-05 -1.01028767e-04 -6.15909084e-05
      -1.33680674e-04 -7.31032342e-05 7.12060937e-05 -5.60000881e-05
      -2.95548380e-05 8.84279725e-05 2.56486328e-05 -6.15909084e-05
      -6.15909084e-05 5.90418458e-05 -1.73333974e-05 -4.70351733e-05
      -2.01868406e-05 0. -8.04550218e-05 -8.04550218e-05 0.
      -1.39631511e-05 -1.39631511e-05 -6.15909084e-05 -9.26020439e-05
      -5.91400858e-05 -4.57637325e-05 -9.48444431e-05 -7.06334686e-05
      8.84279725e-05 -5.19911337e-05 -6.15909084e-05 8.23990558e-06
      3.84681007e-05 -1.73333974e-05 -6.76089185e-05 -6.76089185e-05 0.
      0. 0. -1.39631511e-05 -1.39631511e-05 -1.39631511e-05
      -1.34221962e-04 -9.89524924e-05 -1.80614534e-05 -8.04792289e-05
      -9.12024261e-05 -7.06334686e-05 8.84279725e-05 -5.19911337e-05
      -6.15909084e-05 8.23990558e-06 -4.19869175e-05 -1.73333974e-05
      -6.76089185e-05 -6.76089185e-05 -1.23196796e-05 0. -1.39631511e-05
      -1.39631511e-05 -1.39631511e-05 -1.34221962e-04 -1.07745152e-04
      -6.61252343e-05 -1.36044269e-04 -8.04792289e-05 -9.12024261e-05
      4.73493383e-05 8.84279725e-05 -5.19911337e-05 -6.15909084e-05
      8.23990558e-06 -4.19869175e-05 -1.30471626e-05 -6.76089185e-05
      -6.76089185e-05 -3.28934257e-05 0. -1.39631511e-05 -1.34221962e-04
      -1.40572418e-04 -1.40572418e-04 -2.03857089e-05 -7.89826445e-05
      -7.08272346e-05 -1.34951042e-04 -8.83871689e-05 4.73493383e-05
      6.42328450e-05 -5.48063872e-05 -6.15909084e-05 8.23990558e-06
      -4.19869175e-05 -1.05821862e-04 -6.76089185e-05 -6.76089185e-05
      -4.07605876e-05 0. 0. -1.34221962e-04 -2.02607393e-04
      -2.72432313e-04 -1.98515263e-04 -1.33062524e-04 -1.00411606e-04
      -1.30481625e-04 -7.06334686e-05 5.37124761e-05 8.48065902e-05
      -5.48063872e-05 -6.15909084e-05 8.23990558e-06 -1.51385848e-05
      -9.91431516e-05 -6.76089185e-05 -6.76089185e-05 -4.07605876e-05 0.
      0. -1.20258817e-04 -2.45032657e-04 -1.49836618e-04 -1.68020517e-04
      -1.91152212e-04 -2.11079809e-04 -1.11279051e-05 5.37124761e-05
      6.60321602e-05 5.00910974e-05 -9.44181666e-05 -6.15909084e-05
      8.23990558e-06 -7.27142333e-06 -9.91431516e-05 -6.76089185e-05
      -6.76089185e-05 -4.07605876e-05 0. 0. 0. -1.60015261e-04
      -1.49836618e-04 -1.52591485e-04 -1.78252551e-04 -2.50902405e-04
      -4.98684385e-05 3.97493277e-05 3.77714168e-05 4.89628883e-06
      -9.44181666e-05 -6.15909084e-05 8.23990558e-06 -7.27142333e-06
      -9.91431516e-05 -6.76089185e-05 -6.76089185e-05 -4.07605876e-05 0.
      0. 0. -1.19752067e-05 2.61435998e-05 -1.21767562e-05
      -1.62611977e-04 -1.93957225e-04 -2.22306626e-04 -8.63832465e-05
      1.71976735e-05 -6.76089185e-05 -1.29133667e-04 -6.15909084e-05
      8.23990558e-06 2.56220028e-05 -9.91431516e-05 -6.76089185e-05
      -6.76089185e-05 -4.07605876e-05 0. 0. 1.08632543e-04
      3.01619984e-05 -5.31053156e-05 5.04815434e-05 -1.56261522e-04
      -2.15097622e-04 -2.58821441e-04 -1.70091153e-04 -1.07613247e-04
      -6.76089185e-05 -1.27490188e-04 -6.15909084e-05 8.23990558e-06
      2.56220028e-05 -1.03429389e-04 -6.76089185e-05 -6.76089185e-05
      -4.07605876e-05 0. 1.08632543e-04 6.46923290e-05 1.07506763e-04
      1.36016592e-04 1.77625087e-04 9.68548047e-05 -2.23005234e-04
      -2.46501761e-04 -2.54897750e-04 -1.50876236e-04 -6.76089185e-05
      -1.48063933e-04 -6.15909084e-05 8.23990558e-06 2.56220028e-05
      -1.03429389e-04 -6.76089185e-05 -6.76089185e-05 -4.07605876e-05 0.
      1.08632543e-04 1.07506763e-04 8.38916167e-05 1.81199328e-04
      1.62066630e-04 4.30891087e-05 -2.20192931e-04 -3.42263142e-04
      -2.22004310e-04 -1.50876236e-04 -6.76089185e-05 -1.48063933e-04
      -4.76277564e-05 8.23990558e-06 2.56220028e-05 -1.03429389e-04
      -6.76089185e-05 -6.76089185e-05 -4.07605876e-05 8.50173965e-05
      1.08632543e-04 8.38916167e-05 3.33255157e-05 1.98581431e-04
      1.19252196e-04 -5.32534068e-06 -2.43450631e-04 -3.42263142e-04
      -2.22004310e-04 -1.71832580e-04 -1.50876236e-04 -1.48063933e-04
      -4.76277564e-05 2.22030558e-05 3.95851530e-05 -5.17796507e-05
      -2.82788642e-05 -3.10941177e-05 -4.07605876e-05 1.08632543e-04
      1.46883147e-04 4.40190852e-05 7.19555392e-05 1.55767004e-04
      4.30891087e-05 -4.94841079e-05 -2.62106070e-04 -3.39450839e-04
      -2.22004310e-04 -1.71832580e-04 -1.50876236e-04 -1.48063933e-04
      -8.04550218e-05 -4.76277564e-05 3.95851530e-05 -6.92350368e-05
      -6.22866428e-05 -6.51018927e-05 4.43422277e-06 1.13954826e-04
      9.28699956e-05 8.95684498e-05 1.56808455e-04 1.82386342e-04
      -1.29693017e-05 -1.41754044e-05 -9.81468256e-05 -2.15103370e-04
      -8.36937033e-05 -1.32502522e-04 -1.50876236e-04 -1.48063933e-04
      -8.04550218e-05 -4.76277564e-05 6.75789033e-06 -7.24069323e-05
      -6.90757734e-05 -6.90757734e-05 4.27899649e-05 6.95873969e-05
      1.06051382e-04 2.81721223e-05 1.67282516e-04 1.41850178e-04
      1.63798133e-04 -4.32661509e-05 -7.05186030e-05 -1.47863364e-04
      -1.52944485e-04 -1.09714856e-04 -6.88848959e-05 -1.05636900e-04
      -8.04550218e-05 -8.04550218e-05 -6.30729191e-05 -3.65162523e-05
      1.28446509e-05 1.28446509e-05 3.96929863e-05 2.99756157e-05
      6.64395920e-05 -9.92248388e-05 -1.70631347e-06 -1.11725503e-05
      -2.85546466e-05 -1.70631347e-06 -1.09009663e-04 -9.30202223e-05
      -1.49460117e-04 -8.98412400e-05 -1.11264453e-04 -1.21215606e-04
      -8.04550218e-05 -3.52602074e-05 -3.52602074e-05</_>
    <_>
      4.33779423e-05 -2.57136981e-05 0. 0. 1.15970077e-04 1.15970077e-04
      1.15970077e-04 8.05567106e-05 2.20503251e-04 -1.13991875e-04
      -4.20078548e-04 -7.52751221e-05 2.67397088e-04 9.31304530e-05
      6.77966455e-05 -2.57136981e-05 -2.57136981e-05 -2.57136981e-05
      -2.57136981e-05 -1.21181110e-04 -7.47188387e-05 -2.57136981e-05 0.
      0. 1.15970077e-04 1.15970077e-04 1.82164022e-05 -2.93468602e-05
      1.64146782e-04 -1.09424036e-04 -3.47773952e-04 -8.43348680e-05
      2.67397088e-04 9.31304530e-05 9.31304530e-05 9.35103453e-05 0. 0.
      1.40125645e-04 -7.18435695e-05 -7.47188387e-05 -2.57136981e-05 0.
      0. 3.98901429e-05 3.98901429e-05 -9.77536765e-05 -2.93468602e-05
      -2.08694648e-04 -3.23857152e-04 -2.57464999e-04 -2.03179021e-04
      1.64826983e-04 1.26639425e-04 9.31304530e-05 9.35103453e-05 0.
      2.99580734e-05 3.22443411e-05 1.11543159e-04 -4.77776266e-05
      -2.57136981e-05 -2.35146672e-05 0. 3.98901429e-05 0.
      -9.77536765e-05 -9.77536765e-05 -2.65531911e-04 -3.08248185e-04
      -1.73098364e-04 -1.05425344e-04 1.39493175e-04 1.26639425e-04
      9.31304530e-05 1.18844153e-04 0. 2.99580734e-05 3.22443411e-05
      1.11543159e-04 -4.02789010e-05 -2.57136981e-05 0. 0. 0. 0.
      -9.77536765e-05 -9.77536765e-05 -1.62532975e-04 -2.66159768e-04
      -1.67368198e-04 -7.84841322e-05 1.39493175e-04 7.88619145e-05
      9.31304530e-05 1.18844153e-04 5.68372598e-05 2.99580734e-05
      1.60562078e-04 -1.03357102e-04 -1.81031101e-05 -2.57136981e-05
      -2.19903131e-06 0. 0. 0. -9.77536765e-05 -2.18233821e-04
      -1.71042047e-04 -1.96651075e-04 -1.67368198e-04 2.93971698e-05
      1.39493175e-04 -1.08758577e-04 9.31304530e-05 1.18844153e-04
      5.68372598e-05 2.99580734e-05 6.28084017e-05 -1.03357102e-04
      -3.19323844e-05 -2.57136981e-05 0. 0. 0. 0. -9.77536765e-05
      -2.27293567e-04 -2.89138843e-04 -1.92406689e-04 -1.37410112e-04
      2.93971698e-05 3.16118712e-05 -1.08758577e-04 9.31304530e-05
      1.18844153e-04 5.68372598e-05 2.99580734e-05 2.38686061e-05
      -1.03357102e-04 -6.02384789e-05 -2.57136981e-05 0. 0. 0. 0.
      -1.06813430e-04 -2.77692918e-04 -2.60915258e-04 1.91636485e-04
      -1.37410112e-04 -6.83565086e-05 -9.88567263e-06 -1.49148209e-05
      9.31304530e-05 9.35103453e-05 0. 2.99580734e-05 2.38686061e-05
      -1.31580658e-04 -6.02384789e-05 -2.57136981e-05 0. 0. 0.
      -9.05974957e-06 -1.19412260e-04 -2.91522185e-04 -1.12277827e-04
      5.15108404e-05 -2.06957320e-05 -1.71377658e-04 -3.21766020e-05
      -1.49148209e-05 9.31304530e-05 1.80163246e-04 0. 2.99580734e-05
      2.38686061e-05 -1.67585720e-04 -2.05290256e-04 -2.57136981e-05 0.
      0. -9.05974957e-06 -9.05974957e-06 -1.69811610e-04 -2.51855527e-04
      1.19590004e-04 5.15108404e-05 5.23301560e-06 -9.92073751e-07
      -8.02274080e-05 -5.19213136e-05 9.31304530e-05 1.77964219e-04 0.
      2.99580734e-05 -4.35495440e-06 -2.47329863e-05 -2.42296737e-04
      -2.57136981e-05 0. -9.05974957e-06 -9.05974957e-06 -9.05974957e-06
      -1.70879488e-04 -9.20359162e-05 5.15108404e-05 7.38514136e-05
      -8.50661581e-06 5.26281256e-05 -1.59802614e-04 -5.19213136e-05
      6.77966455e-05 -2.57136981e-05 0. 2.99580734e-05 -4.35495440e-06
      -4.82476535e-05 -2.28467470e-04 -2.57136981e-05 -9.05974957e-06
      -9.05974957e-06 -9.05974957e-06 -9.05974957e-06 -3.31529853e-04
      -5.42685084e-05 4.75110319e-05 2.47434538e-04 1.51555105e-05
      -1.14217190e-04 -5.19213136e-05 -7.72551284e-05 6.77966455e-05
      -2.57136981e-05 0. 2.99580734e-05 -1.81842279e-05 5.96336540e-05
      -2.28467470e-04 -9.37928562e-05 -9.05974957e-06 -9.05974957e-06
      -9.05974957e-06 -9.05974957e-06 -2.24619536e-04 -2.35214902e-04
      -2.83398258e-04 -6.30511277e-05 -1.02941274e-04 -1.26816027e-04
      -7.72551284e-05 -7.72551284e-05 -2.57136981e-05 -2.57136981e-05 0.
      2.99580734e-05 -1.81842279e-05 5.96336540e-05 -1.52939407e-04
      -6.80791636e-05 0. 0. -9.05974957e-06 -9.70975520e-07
      -1.48886378e-04 -6.67187633e-05 -1.86392659e-04 -1.02941274e-04
      -2.69786600e-04 -3.31191812e-04 -2.04411655e-04 -1.70765474e-04
      -1.33758978e-04 -2.57136981e-05 0. 2.99580734e-05 -4.03600170e-05
      5.96336540e-05 -1.52939407e-04 -1.75960464e-04 0. 0. 0.
      8.08877394e-06 1.73942808e-05 -1.59339237e-04 -2.16667715e-04
      -7.05500061e-05 -1.77023627e-04 -3.37258331e-04 -2.97922001e-04
      -2.87706527e-04 -2.41640286e-04 -1.70765474e-04 0. 2.99580734e-05
      -4.03600170e-05 5.96336540e-05 -1.52939407e-04 -1.75960464e-04 0.
      0. 3.98901429e-05 1.15970077e-04 -5.64866241e-05 -1.47430037e-04
      1.46768012e-04 -8.32849837e-05 -2.14030108e-04 -5.12822240e-04
      -1.79825220e-04 -1.79825220e-04 -1.70765474e-04 -1.70765474e-04
      -1.45051774e-04 2.99580734e-05 -4.03600170e-05 5.96336540e-05
      -4.50546358e-05 -1.19123208e-04 0. 0. 1.15970077e-04
      3.34225842e-05 -5.64866241e-05 -1.10175615e-05 1.46768012e-04
      -1.49440632e-06 -2.34441774e-04 -3.70770693e-04 -1.70765474e-04
      -2.78646767e-04 -1.70765474e-04 -1.70765474e-04 0. 0.
      -1.81276584e-04 8.31483194e-05 -9.05526249e-05 -8.24501258e-05
      3.66730819e-05 9.35103453e-05 1.72807340e-04 1.72807340e-04
      8.28981283e-05 1.22577447e-04 2.78163992e-04 -9.42525294e-05
      -1.30366025e-04 -1.03657701e-04 -1.16783413e-04 -7.40380638e-05
      3.11235635e-05 0. 0. 0. -2.91444157e-04 -8.17195105e-05
      -8.89873627e-05 -1.85020210e-04 -9.05974957e-06 3.08303934e-05
      3.98901429e-05 3.98901429e-05 7.65632285e-05 4.04063685e-05
      1.98191934e-04 4.82876385e-05 -2.90758926e-05 -5.82395332e-05
      -7.13652480e-05 -5.19213136e-05 3.62931969e-05 3.66730819e-05
      5.68372598e-05 0. -3.08803399e-04 -2.22636081e-04 -1.90608727e-04
      -1.35002439e-04 -6.69232832e-05 3.08303934e-05 3.08303934e-05
      3.08303934e-05 -9.05974957e-06 1.75625610e-05 1.84407880e-04
      3.73328726e-06 1.80756651e-05 4.96080111e-06 -1.27869091e-04
      -2.57136981e-05 0. 0. 0. 0. -4.62961689e-05 -2.95971055e-04</_>
    <_>
      -2.25512613e-05 -3.24961657e-05 -1.49748112e-05 -3.41329614e-05
      9.22269919e-06 -5.43626556e-05 -1.04324783e-04 -1.04699502e-04
      -3.25621077e-05 7.90104150e-06 2.87403927e-05 8.91608142e-05
      9.87222593e-05 3.41483719e-05 -1.11748523e-05 1.23181990e-05
      -1.39740487e-05 0. -1.65695201e-05 -1.65695201e-05 -2.25512613e-05
      -3.24961657e-05 -1.49748112e-05 -3.41329614e-05 9.22269919e-06
      -5.43626556e-05 -1.11927962e-04 -1.26781015e-04 -3.56570017e-05
      -2.60493798e-05 1.49949319e-05 4.75455672e-05 8.25495954e-05
      1.10720230e-05 4.21970435e-05 3.82897269e-05 1.12717598e-05 0.
      3.89540082e-06 1.75943624e-05 -2.25512613e-05 -3.24961657e-05
      -1.49748112e-05 -3.41329614e-05 -6.66638380e-06 -5.90483978e-05
      -1.21150661e-04 -1.37762647e-04 -7.38329545e-05 -3.26689587e-05
      6.43237809e-06 4.09072600e-05 7.21662727e-05 2.53849394e-05
      4.21970435e-05 3.82897269e-05 4.65798894e-06 2.04649205e-05
      3.89540082e-06 2.81965986e-05 -5.89443262e-05 -3.24961657e-05
      -4.16953208e-06 -3.41329614e-05 -2.97984370e-05 -1.02404061e-04
      -1.21150661e-04 -1.52966386e-04 -1.04835453e-04 -3.26689587e-05
      6.43237809e-06 1.98968119e-05 1.30298613e-05 -2.17995566e-05
      1.22125130e-05 4.47086786e-05 6.48161404e-06 2.04649205e-05
      3.89540082e-06 2.81965986e-05 -6.07755246e-05 -3.54135991e-05
      -7.08696780e-06 -3.41329614e-05 -5.00220449e-05 -1.02404061e-04
      -1.35124705e-04 -1.52966386e-04 -1.04835453e-04 -3.26689587e-05
      1.05861436e-05 2.34715808e-05 1.13595415e-05 -3.74232950e-05
      1.51299491e-05 1.58103849e-05 9.85079532e-06 6.49087178e-06
      1.75943624e-05 -2.64224127e-05 -6.07755246e-05 -4.93876469e-05
      -7.08696780e-06 -3.70503985e-05 -5.00220449e-05 -1.50534994e-04
      -1.55283618e-04 -1.87099344e-04 -1.35397771e-04 -6.33599630e-05
      -3.75447853e-05 -2.46593499e-05 7.15462875e-07 -5.23217022e-05
      1.51299491e-05 1.58103849e-05 1.13100687e-05 6.49087178e-06
      1.46769280e-05 -2.64224127e-05 -6.07755246e-05 -6.95465642e-05
      -7.08696780e-06 -3.70503985e-05 -5.00220449e-05 -1.55283618e-04
      -1.55283618e-04 -1.87099344e-04 -1.35397771e-04 -1.11184891e-04
      -3.39713515e-05 -2.75767852e-05 -4.26651204e-05 -4.29745887e-05
      1.22125130e-05 1.58103849e-05 -2.19649319e-05 6.49087178e-06
      1.46769280e-05 -2.64224127e-05 -5.01595387e-05 -6.08192495e-05
      -7.08696780e-06 -3.70503985e-05 -3.70503985e-05 -1.55283618e-04
      -1.55283618e-04 -1.87099344e-04 -1.35397771e-04 -5.59614600e-05
      -5.12757215e-05 -4.33820314e-05 -9.78956086e-05 -6.17515834e-05
      1.22125130e-05 6.37412256e-07 -4.15067771e-05 6.49087178e-06
      1.46769280e-05 -2.64224127e-05 -5.01595387e-05 -6.08192495e-05
      -7.08696780e-06 -3.70503985e-05 -3.70503985e-05 -1.36477101e-04
      -1.38714095e-04 -1.38714095e-04 -1.23778809e-04 -9.63122293e-05
      -7.11615721e-05 -5.81741988e-05 -7.99307963e-05 -4.30227119e-05
      -3.59184160e-05 2.55417876e-06 -4.36203190e-05 3.57343629e-06
      1.46769280e-05 -2.64224127e-05 -5.01595387e-05 -4.93876469e-05
      -7.08696780e-06 -3.70503985e-05 -3.70503985e-05 -8.76657359e-05
      -8.76657359e-05 -8.76657359e-05 -2.93747817e-05 -2.46890413e-05
      -2.38672637e-05 -7.08279185e-05 -6.88141445e-05 -5.36386979e-05
      -3.77496144e-05 2.55417876e-06 -6.88661239e-05 -7.23184303e-06
      1.46769280e-05 -2.64224127e-05 -6.07755246e-05 -4.93876469e-05
      -7.08696780e-06 -1.16447472e-05 0. -5.35327745e-05 -5.35327745e-05
      -1.89044240e-05 -2.93747817e-05 -2.01012863e-05 -9.95740038e-07
      -2.17949218e-05 -4.72253123e-05 -5.36386979e-05 -5.00051501e-05
      -8.98344806e-05 -6.88661239e-05 -3.34805081e-05 1.75943624e-05
      -2.64224127e-05 -5.89443262e-05 -4.93876469e-05 -7.08696780e-06
      -2.91743549e-06 -5.17015760e-05 -5.35327745e-05 -5.35327745e-05
      -1.01771120e-05 -1.91457639e-05 -5.57157728e-06 2.77044978e-06
      -6.49401636e-06 -3.57937097e-05 -1.09928027e-04 -5.00051501e-05
      -1.18828255e-04 -6.88661239e-05 -2.47531952e-05 -3.41072118e-05
      -2.35049774e-05 -5.89443262e-05 -3.54135991e-05 -7.08696780e-06 0.
      -5.17015760e-05 -5.17015760e-05 -1.30945473e-05 -1.90428466e-06
      -1.43954167e-05 1.26366640e-05 -1.46985698e-07 -1.40971924e-05
      -4.32989036e-05 -1.03621765e-04 -1.19508688e-04 -1.18828255e-04
      -6.88661239e-05 -3.61847997e-05 -3.34267788e-05 -2.35049774e-05
      -5.89443262e-05 -3.54135991e-05 -6.80436528e-07 0. 0.
      -8.34591538e-06 -6.67559516e-06 7.59469413e-06 2.62219073e-05
      1.94900604e-05 -1.29464324e-05 -2.93009343e-05 -5.09666825e-05
      -1.73125300e-04 -1.08892702e-04 -1.18828255e-04 -6.88661239e-05
      -1.30417193e-05 -3.34267788e-05 -2.35049774e-05 -5.89443262e-05
      -4.16953208e-06 -6.80436528e-07 -1.14316026e-05 -2.54056504e-05
      2.93816138e-05 5.26291587e-05 3.38906211e-05 1.02255945e-05
      1.29855389e-05 -1.75341884e-05 -2.55371142e-05 -1.23959311e-04
      -1.52966386e-04 -1.46620238e-04 -7.06973224e-05 -5.45170878e-05
      1.17376085e-05 -3.34267788e-05 -2.35049774e-05 -3.35386758e-05
      -4.16953208e-06 -6.80436528e-07 -3.70503985e-05 9.22269919e-06
      1.79500112e-05 -4.59222065e-06 -1.28435531e-05 6.83829785e-05
      5.65122791e-05 -3.58179568e-05 -7.14527414e-05 -1.52285953e-04
      -1.50048945e-04 -1.42887176e-04 -4.23742349e-05 -3.18157290e-05
      2.04649205e-05 -3.34267788e-05 -2.35049774e-05 -3.59919977e-06
      -1.42014351e-05 4.18223351e-07 -2.01589137e-05 -6.66638380e-06
      -4.55238187e-05 -5.65175060e-06 7.78307094e-06 3.76076059e-05
      5.26909662e-06 -7.79714755e-05 -1.47537314e-04 -1.49368512e-04
      -1.50048945e-04 -1.34159869e-04 -3.36469238e-05 -3.97582335e-05
      -2.54056504e-05 -7.25313876e-05 -4.89106278e-05 -1.25468114e-05
      -4.41109751e-06 -1.02302274e-05 1.08435879e-05 -2.37948116e-05
      -1.97895079e-05 -4.32570159e-05 1.25520401e-05 2.17185207e-05
      -4.69732986e-05 -5.64647053e-05 -6.45608743e-05 -9.16378849e-05
      -1.05819199e-04 -6.41363367e-05 -3.36469238e-05 -1.14316026e-05
      -3.41329614e-05 -8.12587023e-05 -7.00328819e-05 4.34443990e-07
      6.37487346e-07 1.88392769e-05 4.10676403e-05 -1.72869532e-05
      -1.32816485e-05 -2.41743674e-05 1.69461437e-05 2.36384094e-05
      -1.24096423e-05 2.22173867e-06 -4.25606195e-05 -6.86101048e-05
      -3.58942566e-06 -3.34690631e-05 9.46607270e-06 2.38248431e-05
      -3.41329614e-05 -8.58345375e-05 -7.58896349e-05 3.02028402e-05
      3.86474057e-05 4.28169369e-05 1.82005442e-05 1.65302245e-05
      -3.05128378e-05 -5.53895989e-05 -4.47736129e-05 -3.48287103e-05
      -4.47736129e-05 -3.24715329e-05 -8.82413078e-05 -4.07677071e-05
      -3.74113770e-05 -3.91796821e-05 4.43376193e-05 -8.72731198e-06
      3.53724067e-06 -4.08579872e-05 -5.48320386e-05</_>
    <_>
      -6.89431035e-05 -1.52745619e-04 0. 0. 1.37113981e-04
      2.77085463e-04 -1.69490333e-04 -6.07017428e-04 -7.43268291e-04
      -7.38407602e-04 -8.98734143e-04 -5.13603794e-04 -1.87102967e-04
      -5.42976544e-04 -8.77628627e-05 -1.38905689e-05 -1.60326512e-04
      -1.60326512e-04 0. 1.91984480e-04 -1.27428095e-04 -1.52745619e-04
      0. 0. 1.37113981e-04 2.77085463e-04 1.32717047e-04 -1.87139449e-04
      2.22471805e-04 -3.47914640e-04 -2.33242507e-04 -4.73316031e-05
      -3.70471716e-05 -3.82650032e-04 1.15498326e-04 5.05498174e-05
      -1.56726659e-04 -1.60326512e-04 7.45221259e-05 3.75373260e-04
      -1.27428095e-04 -1.52745619e-04 0. 0. 0. -1.44368430e-04
      -1.44368430e-04 -2.35656058e-04 -1.74848916e-04 -2.15526510e-04
      -2.63972615e-04 -1.51027562e-04 -1.01743935e-04 1.55603819e-04
      1.15498326e-04 2.19289752e-04 -7.84931108e-05 -1.02126156e-04
      7.45221259e-05 9.22334148e-04 -2.42441267e-04 -1.52745619e-04 0.
      0. 0. -1.44368430e-04 -1.44368430e-04 -2.90048629e-04
      -2.90048629e-04 -2.31848273e-04 2.38779412e-05 6.95280846e-07
      2.91891687e-04 7.73702704e-05 2.62224436e-04 1.01897902e-04
      -7.84931108e-05 5.82003595e-05 -9.79227207e-06 5.38864348e-04
      -2.42441267e-04 -1.52745619e-04 0. 0. 0. -1.44368430e-04
      -1.44368430e-04 0. 0. 7.45221259e-05 -2.11190549e-04
      2.08293990e-04 1.66667349e-04 4.04040984e-05 2.62224436e-04
      1.01897902e-04 -4.15269351e-05 5.82003595e-05 2.59764580e-04
      5.08777855e-04 -2.42441267e-04 -1.52745619e-04 0. 0.
      -1.44368430e-04 -1.44368430e-04 -1.44368430e-04 0. 0.
      1.63217665e-05 6.19328566e-05 4.21043915e-05 1.66667349e-04
      2.72726902e-05 1.01897902e-04 1.01897902e-04 -4.15269351e-05
      5.82003595e-05 2.59764580e-04 3.25677451e-04 -2.42441267e-04
      -1.52745619e-04 0. 0. -1.44368430e-04 -1.44368430e-04 0. 0. 0.
      7.45221259e-05 -2.99227031e-05 2.60851113e-04 5.77708008e-04
      1.43424841e-04 1.01897902e-04 1.01897902e-04 1.18799580e-04
      5.82003595e-05 1.15396142e-04 6.68251159e-05 -1.15186362e-04
      -1.52745619e-04 0. -1.44368430e-04 -1.44368430e-04 -1.44368430e-04
      0. 0. 0. 2.32155449e-04 -2.49857083e-04 4.02984821e-04
      4.77495836e-04 3.72748065e-04 1.01897902e-04 5.89632291e-05
      8.18334083e-05 5.82003595e-05 1.15396142e-04 -2.35981453e-04
      -1.15186362e-04 -1.52745619e-04 0. -1.44368430e-04 -1.44368430e-04
      -1.44368430e-04 0. 0. 2.69556855e-04 7.88580874e-05
      -1.88680628e-04 1.20294630e-04 1.96230423e-04 2.16021406e-04
      1.01897902e-04 6.68715875e-05 3.59986279e-06 5.82003595e-05
      1.15396142e-04 -5.58122738e-05 -2.28980847e-04 -1.52745619e-04 0.
      -1.44368430e-04 -1.44368430e-04 0. 0. 0. 4.06670821e-04
      4.91749124e-05 -1.19006290e-04 6.37867051e-05 4.58156224e-04
      1.01897902e-04 1.01897902e-04 1.35121343e-04 0. 5.82003595e-05
      -4.93269617e-05 -5.58122738e-05 -3.73678282e-04 -1.52745619e-04
      -1.44368430e-04 -1.44368430e-04 -1.44368430e-04 0. 0. 0.
      5.46642288e-04 -2.93534191e-04 -7.33794441e-05 2.71063182e-04
      2.62224436e-04 1.01897902e-04 5.05498174e-05 3.59986279e-06 0.
      5.82003595e-05 -7.23479243e-05 -5.58122738e-05 -2.58789951e-04
      -1.52745619e-04 -1.44368430e-04 -1.44368430e-04 -1.44368430e-04 0.
      0. 1.37113981e-04 7.09826418e-05 -2.35066163e-05 -1.69608786e-04
      1.62284385e-04 1.01897902e-04 5.05498174e-05 -4.15269351e-05 0. 0.
      5.82003595e-05 -7.23479243e-05 -4.77878057e-04 -1.12063855e-04
      -1.52745619e-04 -1.44368430e-04 -1.44368430e-04 -1.61293661e-04 0.
      1.66569138e-04 2.09503822e-04 -1.39350668e-04 -3.41521169e-04
      -4.54720976e-05 9.00076193e-05 5.05498174e-05 -3.37737911e-05 0.
      0. 0. 5.82003595e-05 -8.83060202e-05 -3.62864899e-04
      2.25118943e-04 -2.97114049e-04 -1.44368430e-04 -1.61293661e-04
      -1.69252271e-05 1.20188757e-04 5.67582028e-05 2.17917230e-04
      -1.30914341e-05 -2.53606908e-04 -9.86791129e-05 6.41502411e-05
      -6.29957867e-06 -1.60326512e-04 1.14123504e-04 -2.25951626e-05 0.
      5.82003595e-05 -2.35032116e-04 -3.62864899e-04 4.17690957e-04
      -4.04325518e-04 -1.44368430e-04 -1.61293661e-04 -1.69252271e-05
      1.07414628e-04 6.51716109e-05 8.08032419e-05 -2.90700060e-04
      -2.85196205e-04 -1.80601142e-04 1.54026944e-04 -1.60326512e-04
      -1.60326512e-04 9.15283381e-05 -2.25951626e-05 0. 5.82003595e-05
      -8.83060202e-05 -6.67170738e-04 4.17690957e-04 -4.04325518e-04
      -1.44368430e-04 -1.61293661e-04 -1.69252271e-05 1.07414628e-04
      -7.19423697e-05 2.82200858e-06 -1.30117813e-04 -2.32934370e-04
      -1.89176193e-04 3.59986279e-06 -1.60326512e-04 -1.60326512e-04
      -2.25951626e-05 -2.25951626e-05 -2.25951626e-05 5.82003595e-05
      -8.83060202e-05 -6.11425552e-04 4.97591798e-04 -1.91401603e-04
      -1.12779133e-04 -1.69252271e-05 1.20188757e-04 1.67274527e-04
      -2.11913852e-04 2.74221500e-04 -1.96014880e-05 -4.41553420e-04
      -2.17817709e-04 0. -1.60326512e-04 -1.60326512e-04 -2.25951626e-05
      -2.25951626e-05 -2.25951626e-05 0. -3.28132373e-05 -4.13306785e-04
      4.82953765e-04 1.64016619e-05 8.66469563e-05 1.15199720e-04
      3.75359959e-04 2.39539571e-04 -1.39648808e-04 2.87745614e-04
      1.99145230e-04 -4.59634117e-04 1.74020533e-05 1.61734264e-04
      1.58134397e-04 1.46789011e-04 4.59603107e-05 -2.25951626e-05
      -2.25951626e-05 0. 5.82003595e-05 -1.21007201e-04 5.81789587e-04
      -3.90090645e-05 6.04492598e-05 6.04492598e-05 2.00420749e-04
      -9.22963518e-05 4.76751266e-05 4.03274928e-04 2.99438805e-04
      -2.80663196e-04 1.64313038e-04 3.09305498e-04 3.09305498e-04
      3.57245590e-05 -5.13109917e-05 1.16087642e-04 9.62044214e-05 0. 0.
      -3.90564033e-04 -6.06387330e-05 -4.03948143e-05 6.68166540e-05
      6.68166540e-05 3.52273564e-05 -1.17518255e-04 -1.13918395e-04
      2.19211986e-04 1.95294051e-04 -9.98882751e-05 8.56132829e-05
      2.95208301e-04 3.14967067e-04 -8.40827488e-05 -1.14656694e-04
      7.30814572e-05 -2.33199229e-04 -2.33199229e-04 1.15199720e-04
      -6.22813313e-05</_>
    <_>
      -1.40431730e-04 3.33545941e-05 1.15522278e-04 0. 0. 3.18297883e-04
      2.25810654e-04 1.44352773e-04 2.49176461e-04 4.33984424e-05
      -8.26989854e-05 -1.67738981e-05 -1.56313166e-04 1.48136314e-04
      2.73751903e-05 -7.08715288e-06 -2.13916774e-05 -2.13916774e-05
      -8.90282754e-05 -1.34252463e-04 -1.71336476e-04 3.33545941e-05
      1.30368397e-04 0. 1.01097248e-04 2.02964846e-04 1.11976602e-04
      1.21506971e-04 6.71514426e-05 5.82445537e-05 -9.84669823e-05
      7.63584103e-06 -1.90106712e-05 9.36188881e-05 5.87317409e-05
      5.85060661e-05 1.01594931e-04 1.01594931e-04 5.37495762e-05
      -1.84841527e-04 -1.71336476e-04 1.85084846e-05 1.30368397e-04 0.
      1.60740427e-04 1.60740427e-04 1.11976602e-04 7.92825522e-05
      -2.10510523e-04 -4.69504375e-05 6.56029515e-05 -4.46944978e-05
      -8.72992532e-05 1.63724035e-04 1.90604242e-05 1.35964337e-05
      1.01594931e-04 9.16082354e-05 5.37495762e-05 -1.84841527e-04
      -1.80419229e-04 1.85084846e-05 1.01787991e-04 0. 1.60740427e-04
      1.60740427e-04 1.91640956e-05 -2.98135637e-05 -2.47987569e-04
      6.96893085e-06 -7.30903776e-05 5.45446965e-05 -5.59860528e-05
      2.65591632e-04 7.11823013e-05 1.35964337e-05 1.01594931e-04
      1.70810570e-04 2.14490006e-04 -8.37622938e-05 -1.75324283e-04
      1.85084846e-05 1.10935332e-04 0. 1.01097248e-04 1.38845513e-04
      -1.51563028e-04 -1.17920063e-04 -1.29053064e-04 -9.85430743e-05
      -4.97048677e-05 2.93717949e-05 2.32162784e-05 2.65591632e-04
      1.12326452e-04 3.63273866e-05 2.02692187e-04 2.52348662e-04
      2.29336118e-04 -1.92669875e-04 -1.75324283e-04 3.21049192e-05
      1.00979676e-04 0. 0. 8.36035213e-07 -1.17920063e-04
      -1.36364601e-04 -2.56065949e-04 -5.61644993e-05 -2.21293321e-05
      1.50195092e-05 2.32162784e-05 5.63447429e-05 9.53359813e-06
      3.63273866e-05 2.02692187e-04 1.84396704e-04 7.03959013e-05
      -7.67265228e-05 -1.53429370e-04 3.21049192e-05 1.14300921e-04
      9.45419088e-05 0. 9.16082354e-05 -1.17920063e-04 -3.06350790e-04
      -8.01128554e-05 -1.76239104e-04 5.33008133e-05 3.78653131e-05
      2.32162784e-05 4.55036206e-05 -5.82218381e-05 3.54913500e-05
      2.02692187e-04 1.84396704e-04 6.74273106e-05 -9.15726341e-05
      -1.53429370e-04 3.21049192e-05 1.39377880e-04 1.08138345e-04 0.
